tree
version=v3
num_class=1
num_tree_per_iteration=1
label_index=0
max_feature_idx=27
objective=binary sigmoid:1
feature_names=feature_0 feature_1 feature_2 feature_3 feature_4 feature_5 feature_6 feature_7 feature_8 feature_9 feature_10 feature_11 feature_12 feature_13 feature_14 feature_15 feature_16 feature_17 feature_18 feature_19 feature_20 feature_21 feature_22 feature_23 feature_24 feature_25 feature_26 feature_27
feature_infos=[0.27500000000000002:6.6950000000000003] [-2.4169999999999998:2.4300000000000002] [-1.7430000000000001:1.7430000000000001] [0.019:5.7000000000000002] [-1.7430000000000001:1.7430000000000001] [0.159:4.1900000000000004] [-2.9410000000000003:2.9700000000000002] [-1.7409999999999999:1.7409999999999999] [0:2.173] [0.19:5.1929999999999996] [-2.9039999999999999:2.9089999999999998] [-1.742:1.7430000000000001] [0:2.2149999999999999] [0.26400000000000001:6.5229999999999997] [-2.7280000000000002:2.7269999999999999] [-1.742:1.742] [0:2.548] [0.36499999999999999:6.0679999999999996] [-2.4950000000000001:2.496] [-1.74:1.7430000000000001] [0:3.1019999999999999] 1:0:2:3:4:5:6:7 [0.41899999999999998:7.3920000000000003] [0.46100000000000002:3.6819999999999999] [0.38400000000000001:6.5829999999999993] [0.093000000000000013:7.8600000000000003] [0.38900000000000001:4.5430000000000001] [0.48899999999999999:4.3159999999999998]
tree_sizes=3321 3350 3335 3337 3349 3332 3352 3343 3375 3359

Tree=0
num_leaves=31
num_cat=0
split_feature=25 26 27 25 25 24 22 5 5 27 26 27 25 26 27 24 3 25 13 3 22 19 5 24 4 4 25 24 13 24
split_gain=258.093 165.159 154.815 63.2465 70.8418 52.7566 84.255 36.0201 33.6021 27.9059 27.8319 26.587 26.0762 22.1222 21.9404 33.7761 17.9555 17.3963 16.2751 15.1941 14.4671 15.3903 14.2356 13.447 12.7354 13.7208 12.6665 12.7078 12.328 14.4413
threshold=1.2815000000000001 0.78050000000000008 0.90450000000000019 0.98450000000000015 0.6785000000000001 1.0265000000000002 1.0445000000000002 0.82550000000000001 1.0195000000000003 0.9225000000000001 0.86950000000000016 0.78850000000000009 0.62350000000000005 0.88850000000000018 0.88950000000000007 1.1225000000000003 1.9205000000000003 0.98950000000000016 1.3835000000000004 1.8335000000000004 0.94750000000000012 -0.96449999999999991 1.3365000000000002 0.71850000000000014 1.2535000000000001 -0.27149999999999996 0.58650000000000013 0.74550000000000016 0.96150000000000013 0.75150000000000006
decision_type=2 2 2 2 2 2 2 2 2 2 2 2 2 2 2 2 2 2 2 2 2 2 2 2 2 2 2 2 2 2
left_child=1 7 3 4 28 6 -4 23 13 22 11 -6 -7 -5 20 -16 17 -14 -19 -17 -2 -22 26 -1 25 -8 27 -9 29 -3
right_child=14 2 5 8 10 12 24 9 -10 -11 -12 -13 16 -15 15 19 -18 18 -20 -21 21 -23 -24 -25 -26 -27 -28 -29 -30 -31
leaf_value=0.10292417362382698 0.081794034262678839 0.1692777550243813 0.061553710220063833 0.079337359459298998 0.18088601630906839 0.099385890193498985 0.1211851497981986 0.12415945555782286 0.17482887867713628 0.017084448211349204 0.19700658928739526 0.12357752617007028 0.16073951140458043 0.13525662799642099 0.051814049231606499 0.10135644473403681 0.10282810643801757 0.1149947843625274 0.17558363671764246 0.045262081723579109 0.063414980236265725 0.15092820739444129 0.1791058409066712 0.074516183508739564 0.085527279611794016 0.16652654023156854 0.14418787419817045 0.05532552226366122 0.16667453200421684 0.11489334915283957
leaf_weight=70.480186074972153 30.134637862443924 15.440888822078703 76.457304328680038 32.127010613679886 68.985906511545181 40.096501618623734 33.621290177106857 18.678494542837146 27.893218517303467 5.4790250658988944 187.10870602726936 28.640358299016953 113.81429341435432 39.349361836910248 105.09766262769699 80.691096425056458 23.908473014831543 50.556458562612534 14.195655852556227 14.195655852556227 6.4752114415168789 22.414193451404572 14.195655852556227 101.86005690693855 10.958050131797789 33.123196989297867 34.617476552724838 10.459956943988798 25.402752578258514 58.276902973651886
leaf_count=283 121 62 307 129 277 161 135 75 112 22 751 115 457 158 422 324 96 203 57 57 26 90 57 409 44 133 139 42 102 234
internal_value=0 0.217782 0.423375 0.803433 0.987504 -0.0395418 -0.496971 -0.489543 0.0923822 0.0498153 1.24097 0.808144 0.251165 -0.270883 -0.888436 -1.04655 0.39707 0.506036 0.0922273 -0.61404 -0.352702 0.152936 0.203144 -0.750649 0.236367 0.400406 0.00149671 -0.48433 0.25939 0.0523664
internal_weight=0 1135.73 879.956 483.225 383.856 396.731 154.16 255.771 99.3696 83.4306 284.735 97.6263 242.571 71.4764 259.008 199.984 202.475 178.566 64.7521 94.8868 59.024 28.8894 77.9516 172.34 77.7025 66.7445 63.7559 29.1385 99.1205 73.7178
internal_count=5600 4560 3533 1940 1541 1593 619 1027 399 335 1143 392 974 287 1040 803 813 717 260 381 237 116 313 692 312 268 256 117 398 296
shrinkage=1


Tree=1
num_leaves=31
num_cat=0
split_feature=25 26 25 25 3 5 22 5 26 22 22 26 22 3 26 24 9 25 3 5 24 26 19 13 9 19 24 5 23 3
split_gain=232.617 149.504 79.7406 118.355 38.3313 33.9073 19.959 19.4234 21.8115 18.5966 19.0684 17.7146 20.2141 15.874 14.2708 13.2396 12.7569 12.7084 12.4804 12.2694 11.5951 11.5527 11.8452 11.5454 11.2504 10.1043 9.87799 9.37988 9.34471 10.6218
threshold=1.2815000000000001 0.77650000000000008 0.62350000000000005 0.98950000000000016 1.6175000000000004 0.82550000000000001 1.0445000000000002 0.88150000000000006 1.0375000000000003 1.0025000000000002 0.84950000000000014 0.97650000000000003 0.78450000000000009 0.97650000000000003 0.94950000000000012 0.71850000000000014 0.89250000000000018 2.0390000000000006 1.1435000000000002 1.5755000000000001 1.7450000000000003 1.1205000000000003 0.62900000000000011 0.73250000000000004 0.81850000000000012 1.0425000000000002 1.1005000000000003 0.98050000000000004 0.98050000000000004 0.33650000000000008
decision_type=2 2 2 2 2 2 2 2 2 2 2 2 2 2 2 2 2 2 2 2 2 2 2 2 2 2 2 2 2 2
left_child=1 5 19 4 7 15 11 18 -9 10 -5 24 -13 -7 27 25 -15 -8 -4 -3 23 -16 -23 -6 -2 28 -14 -11 -1 -30
right_child=6 2 3 9 20 13 17 8 -10 14 -12 12 26 16 21 -17 -18 -19 -20 -21 -22 22 -24 -25 -26 -27 -28 -29 29 -31
leaf_value=-0.070545567367869336 -0.063698747468169961 -0.01827213399534907 0.040547634296787358 0.0050430627146062874 0.041070025304019292 0.020647624087933653 -0.011244746472429313 0.065302446020886848 0.032847560252330626 -0.048371091608472166 -0.03445460511881384 -0.0053674502430021559 -0.077847798040587016 -0.049419010140496225 0.04622974600937059 -0.048151769308209885 0.016525868109330353 -0.054398823083843008 0.01250082452607933 0.032708532404784885 -0.056058671702088593 -0.01420997039909578 0.048010759255242202 -0.0035591977472011283 0.00057634108599180446 -0.057016546861190134 -0.049045175963691609 0.032221841656018421 0.056546282537182961 -0.012070134289000313
leaf_weight=5.734798699617385 9.7267870754003507 133.00784780085087 170.80537793040276 53.780241683125496 22.11242538690567 49.26007391512394 64.364367842674255 157.75188791751862 77.055220440030098 13.216595917940142 70.763668358325958 15.226846426725386 74.916007816791534 19.688014268875126 30.600289717316628 99.61165863275528 11.687062725424765 23.213069558143616 51.661297231912613 12.951076492667196 6.9748912602663031 25.392751201987267 10.946569040417669 42.047060444951057 22.688080459833145 14.461666285991667 49.394375905394554 4.967146784067153 6.4828159213066092 43.384998857975006
leaf_count=23 39 534 688 216 89 198 258 636 310 53 284 61 300 79 123 399 47 93 208 52 28 102 44 169 91 58 198 20 26 174
internal_value=0 0.207217 0.400396 0.533954 0.7862 -0.475041 -0.842244 0.892429 1.09304 -0.101761 -0.347976 -1.04015 -1.19485 0.0588528 0.258476 -0.728763 -0.497097 -0.453661 0.680692 -0.274971 0.103326 0.471878 0.0906582 0.236443 -0.374216 -0.395695 -1.32806 -0.52712 -0.202022 -0.063
internal_weight=0 1134.35 884.034 738.075 528.408 250.311 259.53 457.274 234.807 209.667 124.544 171.952 139.537 80.6352 85.1234 169.676 31.3751 87.5774 222.467 145.959 71.1344 66.9396 36.3393 64.1595 32.4149 70.0643 124.31 18.1837 55.6026 49.8678
internal_count=5600 4560 3556 2970 2128 1004 1040 1842 946 842 500 689 559 324 342 680 126 351 896 586 286 269 146 258 130 281 498 73 223 200
shrinkage=0.05


Tree=2
num_leaves=31
num_cat=0
split_feature=27 26 24 22 5 3 5 22 27 26 26 22 22 22 24 26 26 27 5 18 18 27 24 22 1 24 4 26 13 19
split_gain=148.185 184.507 89.3493 94.5526 40.4414 27.3787 27.2162 19.0532 22.1923 18.7714 16.1379 13.5399 13.5163 18.5671 13.3548 13.1524 13.0845 12.6295 12.4814 11.7266 11.1862 10.8851 10.6951 12.1689 10.6912 10.6851 10.5366 15.4816 10.235 10.0935
threshold=0.90250000000000019 0.81150000000000011 1.0265000000000002 1.0445000000000002 0.82050000000000012 1.9205000000000003 0.89650000000000007 1.0355000000000001 0.83850000000000013 1.3665 1.2195000000000003 1.5530000000000002 1.0465000000000002 0.74450000000000016 0.78250000000000008 0.89850000000000019 0.77250000000000008 1.0885000000000002 1.3665 -0.80349999999999988 0.037500000000000012 0.73350000000000015 0.73550000000000015 0.8015000000000001 -0.50249999999999984 0.71850000000000014 -1.2844999999999998 0.86050000000000015 0.78050000000000008 0.8035000000000001
decision_type=2 2 2 2 2 2 2 2 2 2 2 2 2 2 2 2 2 2 2 2 2 2 2 2 2 2 2 2 2 2
left_child=1 4 3 17 16 12 7 8 26 14 24 -11 13 -4 28 -10 25 22 -6 -13 21 -18 -2 -24 -7 29 27 -3 -5 -1
right_child=2 6 5 9 18 10 -8 -9 15 11 -12 19 -14 -15 -16 -17 20 -19 -20 -21 -22 -23 23 -25 -26 -27 -28 -29 -30 -31
leaf_value=-0.0073065839329453548 -0.016487469307459514 -0.05623084117438009 0.037239721742535918 -0.010525945621810534 0.0026424700901839801 0.042241534217950696 0.046441465326568898 0.048583831454238828 -0.047735076649610644 -0.084106131203986287 -0.065659663476146032 -0.06308494214616267 0.015758944867592224 -0.011461805446360647 -0.0058796982191652719 0.0047110946024680727 0.0083246929895967742 -0.086785975259123571 0.050835145873508118 0.0097165970564389165 0.025443695119278426 -0.058890618144533204 -0.020899500706621717 -0.072304795635571864 -0.03395211630187301 -0.046191035241864846 0.031791859314650693 0.032485600310353614 0.060641862462725994 -0.049348221891941484
leaf_weight=47.137687206268311 14.477678209543226 8.9583313912153262 22.361302047967911 7.207369893789294 81.298979952931404 7.4813948571682003 231.06182156503201 55.489924922585487 16.91599103808403 10.226239919662474 24.474132180213928 8.4748705923557264 130.7780214548111 156.79699945449829 50.492837592959404 40.753367215394974 11.681568473577501 51.711808383464813 16.0948636084795 15.92575925588608 18.383085042238235 12.435196608304976 13.981861710548399 65.190060794353485 11.970084518194197 92.483928352594376 119.74999912083149 10.902059018611906 16.893363937735558 20.478829205036163
leaf_count=189 58 36 90 29 327 30 934 224 68 41 98 34 526 630 203 164 47 207 65 64 74 50 56 261 48 370 483 44 68 82
internal_value=0 0.298727 -0.358997 -0.810789 -0.317424 -0.0339608 0.680765 0.454004 0.308395 -0.107724 -0.772828 -0.716196 0.0707549 -0.107664 0.174733 -0.213456 -0.571991 -1.33905 0.212131 -0.311379 -0.0787473 -0.526663 -1.12002 -1.26453 -0.0929329 -0.702926 0.523958 -0.150626 0.78718 -0.400792
internal_weight=0 783.826 608.444 254.582 299.994 353.862 483.831 252.77 197.28 109.22 43.9256 34.6269 309.936 179.158 74.5936 57.6694 202.6 145.361 97.3938 24.4006 42.4999 24.1168 93.6496 79.1719 19.4515 160.1 139.61 19.8604 24.1007 67.6165
internal_count=5600 3157 2443 1021 1204 1422 1953 1019 795 439 176 139 1246 720 300 232 812 582 392 98 171 97 375 317 78 641 563 80 97 271
shrinkage=0.05


Tree=3
num_leaves=31
num_cat=0
split_feature=25 26 27 25 25 25 26 24 22 27 5 27 22 27 3 5 25 3 5 22 17 6 5 4 25 13 24 27 24 3
split_gain=205.5 147.033 120.615 48.8018 42.9305 39.2893 31.207 29.0386 55.8713 27.4704 25.9039 24.2133 24.1531 24.5596 22.82 21.5816 17.4961 15.66 14.9171 14.0718 13.142 12.1896 11.6379 11.56 13.7375 10.9056 12.5604 10.4003 10.2466 10.172
threshold=1.0565000000000002 0.78050000000000008 0.90450000000000019 0.6785000000000001 1.4915 0.62350000000000005 0.86950000000000016 1.0065000000000002 0.99950000000000017 0.78250000000000008 0.82550000000000001 0.75650000000000006 1.0025000000000002 1.0445000000000002 1.6740000000000002 0.91550000000000009 0.94850000000000012 1.8335000000000004 1.2445000000000002 0.73650000000000004 2.1615000000000006 -1.2374999999999998 1.5755000000000001 -0.039499999999999993 0.81350000000000011 0.96150000000000013 0.75150000000000006 0.9225000000000001 1.2035000000000002 0.45550000000000007
decision_type=2 2 2 2 2 2 2 2 2 2 2 2 2 2 2 2 2 2 2 2 2 2 2 2 2 2 2 2 2 2
left_child=1 10 3 25 12 22 9 8 -7 16 29 21 13 15 18 -2 -5 20 -9 -17 -6 -12 -4 24 -11 26 -3 -13 -21 -1
right_child=4 2 5 6 17 7 -8 14 -10 23 11 27 -14 -15 -16 19 -18 -19 -20 28 -22 -23 -24 -25 -26 -27 -28 -29 -30 -31
leaf_value=-0.0082067822268442527 -0.03600340845168739 0.041743145341379032 -0.039583834816730813 0.058122051661491203 -0.047008752157599545 -0.057216452802555551 0.062690998546836268 0.023239390749732365 0.021375800934691283 0.034579783857378019 -0.047216545458954449 -0.020428809991953234 0.0050883379036624774 -0.064095869187775684 -0.013302582113995431 0.071775869025800243 -0.011399031269155922 -0.096966216576504408 0.06298767076847249 -0.017864899718832726 0.015253065589556825 0.029988569110934837 0.019983829297215108 0.022160443600675116 -0.061618993599131359 0.039565820925008176 -0.0091278414644914239 -0.097933260950033699 0.037991988560384667 -0.038166459259787525
leaf_weight=36.193712130188942 61.60467366874218 15.328658059239386 61.882042303681374 60.482323557138443 149.48617099225521 38.98218335211277 209.61736933887005 88.675747245550156 53.854752853512764 5.2086337804794338 5.7129551917314521 20.407141506671909 89.739067852497101 35.435430020093918 32.629632353782654 7.4354685395956031 10.64245595037937 14.977828457951544 32.166219219565392 30.59255476295948 8.984770715236662 48.646721333265305 9.4520306736230832 18.590477675199509 12.908448740839956 25.238058298826218 58.220640689134598 5.4936897903680793 11.222233429551123 130.42828957736492
leaf_count=145 247 62 248 246 599 156 854 358 217 21 23 82 361 142 131 30 43 60 130 123 36 196 38 75 52 102 234 22 45 522
internal_value=0 0.259205 0.483779 0.837929 -0.584235 0.0197022 1.02894 0.20897 -0.232501 0.591794 -0.408359 0.0583577 -0.306666 -0.557212 0.476021 -0.325555 0.954391 -0.96195 0.676395 0.167922 -0.869574 0.437493 -0.633818 -0.110778 -0.67924 0.224118 0.0294871 -0.737357 -0.0574811 -0.633172
internal_weight=0 980.762 733.88 416.237 409.478 317.643 317.45 246.309 92.8369 107.832 246.883 80.2605 236.029 146.29 153.472 110.855 71.1248 173.449 120.842 49.2503 158.471 54.3597 71.3341 36.7076 18.1171 98.7874 73.5493 25.9008 41.8148 166.622
internal_count=5600 3957 2967 1689 1643 1278 1291 992 373 437 990 323 948 587 619 445 289 695 488 198 635 219 286 148 73 398 296 104 168 667
shrinkage=0.05


Tree=4
num_leaves=31
num_cat=0
split_feature=25 26 27 25 25 25 26 24 22 27 5 27 22 27 3 5 25 3 5 22 24 17 0 25 6 5 11 5 14 26
split_gain=185.748 133.212 109.9 44.7766 38.7865 35.4663 28.7742 26.2882 48.8606 25.0439 23.3657 21.8754 21.7992 22.1941 19.956 19.4571 16.0034 14.3462 12.8728 12.8085 12.732 16.2341 14.2998 12.7883 11.0086 10.8518 10.7611 10.4892 10.4274 10.1204
threshold=1.0565000000000002 0.78050000000000008 0.90450000000000019 0.6785000000000001 1.4915 0.62350000000000005 0.86950000000000016 1.0185000000000002 0.99950000000000017 0.78250000000000008 0.82550000000000001 0.75650000000000006 1.0025000000000002 1.0445000000000002 1.6740000000000002 0.91550000000000009 0.94850000000000012 1.8335000000000004 1.2445000000000002 0.73650000000000004 1.3545000000000003 1.5825000000000002 1.1075000000000002 2.0390000000000006 -1.2374999999999998 1.2105000000000001 -0.39449999999999991 1.5755000000000001 0.88850000000000018 0.84050000000000014
decision_type=2 2 2 2 2 2 2 2 2 2 2 2 2 2 2 2 2 2 2 2 2 2 2 2 2 2 2 2 2 2
left_child=1 10 3 -3 12 27 9 8 -7 16 -1 24 13 15 18 -2 -5 20 -9 -17 22 -22 23 25 -12 -6 -16 -4 -11 -14
right_child=4 2 5 6 17 7 -8 14 -10 28 11 -13 29 -15 26 19 -18 -19 -20 -21 21 -23 -24 -25 -26 -27 -28 -29 -30 -31
leaf_value=-0.030077929781266624 -0.034175056126420432 0.010663343632520339 -0.037570509912682418 0.055684425293157119 -0.041923842262812185 -0.053427486732142308 0.060131187984741763 0.022485369647426014 0.019550777555583945 -0.020362635741002059 -0.044712213141357898 -0.035030261622428414 -0.064423209092889955 -0.060930493516932638 0.023361314223986705 0.068720909080323897 -0.010818130932496789 -0.092629891621237692 0.059788593036054799 -0.0027292005918529531 -0.033105672904437639 0.0476914600725191 -0.077772945243829036 -0.072843827422676033 0.028565578150583238 0.00059126736587828679 -0.035453850635847051 0.019011578244857007 0.041774047366429257 0.0089076974659767685
leaf_weight=166.60952299833298 61.654001921415329 98.64042840898037 61.936612665653229 59.986017614603043 47.411064013838768 39.216965451836586 207.66310769319534 87.479777634143829 55.245595619082451 27.779069796204567 5.7307926416397086 25.897659376263618 4.9817028343677512 35.412784084677696 12.965701147913931 7.379100650548934 10.65294826030731 14.896858766674994 31.438560634851456 41.820367902517319 27.99145282804966 7.9919790327548972 31.909794107079506 21.191541567444801 48.519784778356552 21.961725935339928 19.434137299656868 9.4389716982841474 8.9197524935007078 84.728120163083076
leaf_count=667 247 398 248 246 190 157 854 354 223 112 23 104 20 142 52 30 43 60 128 168 112 32 128 85 196 88 78 38 36 341
internal_value=0 0.247147 0.461652 0.801219 -0.555222 0.0187827 0.985332 0.19899 -0.214936 0.564946 -0.388131 0.0555365 -0.291385 -0.529416 0.457389 -0.309249 0.913106 -0.914367 0.646945 0.159743 -0.826163 -0.30321 -0.979809 -0.776982 0.416497 -0.569292 -0.238346 -0.601758 -0.105203 0.0967107
internal_weight=0 977.555 730.798 413.641 409.33 317.156 315.001 245.781 94.4626 107.338 246.758 80.1482 235.976 146.266 151.318 110.853 70.639 173.354 118.918 49.1995 158.458 35.9834 122.474 90.5643 54.2506 69.3728 32.3998 71.3756 36.6988 89.7098
internal_count=5600 3957 2967 1689 1643 1278 1291 992 380 437 990 323 948 587 612 445 289 695 482 198 635 144 491 363 219 278 130 286 148 361
shrinkage=0.05


Tree=5
num_leaves=31
num_cat=0
split_feature=25 26 25 25 3 5 22 24 25 26 22 5 3 13 0 17 9 5 0 22 22 9 5 25 4 22 26 9 26 1
split_gain=199.238 88.8073 59.2614 65.1843 25.9585 25.4189 22.3592 18.9871 18.5194 18.3986 18.3484 15.5066 14.9647 13.3727 12.9798 12.687 12.0011 11.6558 14.3087 11.8436 11.4252 11.1522 11.0853 11.4729 10.9362 10.5849 14.6138 10.329 9.92959 11.7015
threshold=1.2815000000000001 0.81150000000000011 0.61050000000000015 0.98450000000000015 1.3665 1.3505000000000003 1.0215000000000003 0.71450000000000014 1.8325000000000002 1.0535000000000003 1.0445000000000002 0.84250000000000014 1.8795000000000002 1.3685000000000003 1.5955000000000001 0.88250000000000017 1.6725000000000001 0.88150000000000006 2.2790000000000004 0.9275000000000001 0.87550000000000006 0.43500000000000005 1.4220000000000004 0.81750000000000012 0.63450000000000017 0.74450000000000016 0.99350000000000016 0.99050000000000005 0.72850000000000015 0.91050000000000009
decision_type=2 2 2 2 2 2 2 2 2 2 2 2 2 2 2 2 2 2 2 2 2 2 2 2 2 2 2 2 2 2
left_child=1 5 16 4 9 7 11 28 10 17 25 27 15 -9 22 -13 -3 19 -19 20 -4 -6 23 24 -11 -2 -27 -5 29 -1
right_child=8 2 3 6 21 -7 -8 13 -10 14 -12 12 -14 -15 -16 -17 -18 18 -20 -21 -22 -23 -24 -25 -26 26 -28 -29 -30 -31
leaf_value=-0.0014951903081142463 0.013036831345249762 -0.019788082992656473 0.031354844801539175 -0.046576928647418601 0.063636035571819502 0.04190434455479064 0.021451709098845952 -0.031161781868015617 -0.059916803321873227 0.01434309806482789 -0.0065835472061605577 0.02905139008775175 -0.0634671968727024 0.025348421005932466 -0.021020728494205429 -0.01331230912856275 0.04394490477317297 0.0602828726818882 -0.0083188546301307693 0.049244303729382044 -0.0190048349430143 0.0071244266898910797 0.06671406829703512 0.037234890826751806 -0.057298035910897743 -0.018557897185677363 -0.057799809907602806 0.0025625066299259768 0.020482454972164839 -0.046954220646761191
leaf_weight=67.066257938742638 8.2064595520496351 108.00420774519444 51.61663743853569 39.31531834602356 9.550062417984007 19.39579826593399 75.870261609554291 165.74804499745369 80.518361777067184 18.98356215655804 53.602271199226379 37.099656045436859 7.9519095569849005 11.174822896718977 15.730628699064253 33.750579297542572 7.9286552071571341 129.96091905236244 8.0731458067893964 76.815173909068108 14.405841946601866 101.6917636692524 15.442940071225165 37.658634573221207 7.4048272222280493 34.179634064435959 77.563026800751686 14.689635440707205 35.219467520713806 17.943461686372757
leaf_count=269 33 434 212 158 39 79 307 666 324 77 215 150 32 45 64 136 32 539 33 316 59 413 63 153 30 137 312 59 142 72
internal_value=0 0.178208 0.353366 0.463626 0.663883 -0.271074 -0.00404305 -0.343471 -0.801964 0.789403 -0.618069 -0.251452 0.0314238 -0.55185 0.409535 0.177416 -0.308588 0.918186 1.12541 0.717928 0.407331 0.239518 0.573777 0.390406 -0.115201 -0.835428 -0.915931 -0.664215 -0.0368325 -0.221809
internal_weight=0 1128.49 811.944 696.011 487.334 316.548 208.677 297.152 254.07 376.092 173.551 132.807 78.8021 176.923 95.2206 70.8502 115.933 280.872 138.034 142.838 66.0225 111.242 79.49 64.047 26.3884 119.949 111.743 54.005 120.229 85.0097
internal_count=5600 4579 3306 2840 1998 1273 842 1194 1021 1546 697 535 318 711 387 286 466 1159 572 587 271 452 323 260 107 482 449 217 483 341
shrinkage=0.05


Tree=6
num_leaves=31
num_cat=0
split_feature=27 26 24 22 5 5 26 27 2 26 0 22 24 27 10 22 22 24 22 22 24 17 5 22 22 17 17 23 1 5
split_gain=118.614 109.504 64.306 62.4446 35.354 29.8852 16.3942 15.2815 15.1459 13.5435 12.8907 12.2436 11.7446 11.3209 11.3428 10.8478 21.1954 10.4456 11.0182 10.3271 10.2932 10.2734 10.2682 11.5695 13.756 10.001 9.94819 9.79882 9.49231 9.17878
threshold=0.90450000000000019 0.81150000000000011 1.0265000000000002 1.0485000000000004 0.88150000000000006 1.0195000000000003 0.86950000000000016 1.0105000000000002 -1.3434999999999999 1.3665 0.52550000000000019 1.0325000000000002 0.66250000000000009 0.82250000000000012 -1.0524999999999998 0.9255000000000001 0.87450000000000017 0.73250000000000004 0.74450000000000016 0.74450000000000016 0.78250000000000008 0.43550000000000005 1.1685000000000001 1.0485000000000004 0.87550000000000006 1.5975000000000004 0.57250000000000012 0.99150000000000016 -1.4269999999999998 1.5525000000000002
decision_type=2 2 2 2 2 2 2 2 2 2 2 2 2 2 2 2 2 2 2 2 2 2 2 2 2 2 2 2 2 2
left_child=1 5 3 17 6 10 13 22 -7 20 -1 19 -12 14 -3 16 21 26 -19 -9 -5 -8 23 24 -4 -14 -2 -17 -13 -6
right_child=2 4 7 9 29 8 15 11 -10 -11 12 28 25 -15 -16 27 -18 18 -20 -21 -22 -23 -24 -25 -26 -27 -28 -29 -30 -31
leaf_value=-0.042409496862512039 -0.086245743253418328 -0.041812091879060605 0.026560285966499855 0.033611255160154632 0.038145847833972367 -0.045910454480127719 -0.037794372367032716 0.019947436051706693 0.038495624434360332 -0.031401570062797673 0.0080791167578806028 -0.042958243565351245 -0.022238035051978196 -0.042172118879021198 0.014049672676557901 0.022297211939611809 -0.036946971917133455 -0.013926539957759457 -0.066955662505741309 -0.025524556909623988 -0.0070895652395436123 0.031952748449082538 0.041825135395725868 0.042524874349008236 -0.025907978473778178 0.033668124127654242 -0.0097650687809588133 0.057680621139166971 0.0058582419521764715 0.071635915607760267
leaf_weight=43.337345153093338 5.4674187004566219 10.831773251295088 19.830245524644852 23.184393018484116 214.92977972328663 6.1684921085834494 5.8785011917352668 14.091380119323729 38.40334664285183 35.921117097139359 52.290847718715668 10.882896408438681 149.80836801230907 15.642163485288618 56.421864584088326 49.769275531172752 18.271287590265274 10.712795227766035 114.38621716201305 109.61455662548542 47.076273053884506 51.820171743631363 25.158469185233116 15.525698527693747 33.758758217096329 8.4508152902126294 19.124664261937141 32.242580592632294 117.19359439611435 22.61185459792614
leaf_count=174 22 44 80 94 888 25 24 57 156 145 210 44 602 63 230 205 74 43 462 442 190 213 102 63 136 34 77 133 474 94
internal_value=0 0.256397 -0.334988 -0.715102 0.552933 -0.218938 0.282981 -0.0539322 0.536286 -0.128548 -0.351524 -0.182518 -0.249295 -0.07717 0.101053 0.471958 0.199698 -1.13117 -1.24829 -0.406897 0.126815 0.496934 0.289491 0.0903727 -0.129849 -0.385055 -0.535372 0.724161 0.0342043 0.826676
internal_weight=0 776.878 601.928 255.873 478.419 298.459 240.878 346.056 44.5718 106.182 253.887 251.782 210.55 82.8958 67.2536 157.982 75.97 149.691 125.099 123.706 70.2607 57.6987 94.2732 69.1147 53.589 158.259 24.5921 82.0119 128.076 237.542
internal_count=5600 3169 2431 1033 1968 1201 986 1398 181 429 1020 1017 846 337 274 649 311 604 505 499 284 237 381 279 216 636 99 338 518 982
shrinkage=0.05


Tree=7
num_leaves=31
num_cat=0
split_feature=25 26 27 5 24 25 25 25 5 0 5 25 26 24 1 26 25 5 13 24 0 24 1 13 9 14 25 25 9 5
split_gain=175.732 75.2514 97.0958 42.153 30.4712 23.45 23.023 27.661 21.7076 20.7624 19.5771 16.1072 16.0275 16.0144 12.8124 12.756 14.6528 12.4284 11.7951 11.4058 11.8777 10.4553 11.5643 9.65308 9.63209 9.56777 9.48299 13.4483 9.40859 9.27111
threshold=1.2815000000000001 0.81150000000000011 0.90650000000000008 0.88150000000000006 1.0265000000000002 0.6695000000000001 0.98450000000000015 0.6695000000000001 1.3505000000000003 1.6975000000000002 1.9180000000000001 1.8325000000000002 0.95650000000000013 0.71450000000000014 1.4215000000000002 0.86950000000000016 0.85250000000000015 0.82550000000000001 1.3685000000000003 0.73550000000000015 1.0995000000000001 0.76450000000000007 -1.5909999999999997 1.0375000000000003 0.9305000000000001 1.0000000180025095e-35 0.68650000000000011 1.0455000000000003 0.99050000000000005 0.67450000000000021
decision_type=2 2 2 2 2 2 2 2 2 2 2 2 2 2 2 2 2 2 2 2 2 2 2 2 2 2 2 2 2 2
left_child=1 8 3 6 9 -6 7 17 13 10 21 -2 28 -1 -7 16 -9 19 -15 -3 23 25 -23 -21 -16 -4 -5 -28 29 -8
right_child=11 2 4 26 5 14 12 15 -10 -11 -12 -13 -14 18 24 -17 -18 -19 -20 20 -22 22 -24 -25 -26 -27 27 -29 -30 -31
leaf_value=-0.0015276302512474106 -0.029163351612854105 0.069461357890849534 -0.01683077853761283 0.026752270078111956 -0.022558503628373389 0.021567147444848826 -0.090090133678218956 0.03696779754034947 0.039242120070855938 -0.064157856833840371 0.066139826329954882 -0.056305627375463657 0.029537652814931356 -0.028540423000230953 -0.055730144049723984 0.049252437152536473 -0.023645532041799183 -0.075641056802776052 0.024569042550953213 -0.052293681702637089 0.033079335691072589 -0.089134805347937107 -0.019756859012167168 0.028470855065325242 0.017654221039086492 0.040368683544376532 0.061751599134955676 0.024010340506674367 0.018412207582070347 -0.02565799226399312
leaf_weight=120.14521230757236 172.81991067528725 5.3925847411155692 15.808691799640657 36.130527853965759 45.547221571207047 172.60183563828468 8.2182592898607272 29.163834050297737 19.202251002192497 21.847994774580002 7.6473628282546988 79.94452203810215 15.510890543460844 165.57073529064655 9.9314448684453982 86.222917824983597 15.150336250662802 5.9417868852615348 11.15897363424301 14.938082724809652 10.689906761050223 6.4588867574930182 85.740319073200226 4.9176181554794303 8.1335025280714017 13.60043892264366 133.48857218027115 28.673461481928825 7.1879578828811637 17.410908833146095
leaf_count=483 697 22 64 148 183 701 33 120 79 88 31 324 63 666 40 362 62 24 45 60 43 26 346 20 33 55 566 117 29 70
internal_value=0 0.167974 0.330084 0.663698 -0.0308519 0.193482 0.363093 0.534073 -0.245592 -0.381544 -0.229145 -0.754959 -0.246901 -0.312241 0.347479 0.760944 0.324901 -0.173071 -0.50374 0.0484347 -0.188272 -0.326739 -0.492341 -0.645818 -0.453796 0.19243 0.99834 1.10156 -0.642815 -0.926377
internal_weight=0 1122.43 806.355 419.038 387.318 236.214 220.745 172.417 316.077 151.104 129.256 252.764 48.328 296.875 190.667 130.537 44.3142 41.88 176.73 35.9382 30.5456 121.608 92.1992 19.8557 18.0649 29.4091 198.293 162.162 32.8171 25.6292
internal_count=5600 4579 3306 1739 1567 957 908 713 1273 610 522 1021 195 1194 774 544 182 169 711 145 123 491 372 80 73 119 831 683 132 103
shrinkage=0.05


Tree=8
num_leaves=31
num_cat=0
split_feature=25 26 27 5 22 25 25 5 25 22 25 26 25 26 27 25 0 26 0 22 27 5 27 0 5 6 5 10 25 1
split_gain=159.103 68.2455 88.6783 38.8842 33.2205 20.9421 25.2529 19.6562 17.3854 14.9045 15.2305 14.4798 14.188 15.1095 17.8726 13.6669 14.9078 11.9716 16.2888 11.8605 11.8997 11.5441 11.3756 12.0906 11.1556 11.1107 10.9267 10.7395 10.6324 10.4789
threshold=1.2815000000000001 0.81150000000000011 0.90650000000000008 0.88150000000000006 1.0485000000000004 0.98450000000000015 0.6695000000000001 1.3505000000000003 0.61750000000000005 1.0125000000000002 1.5875000000000001 0.95650000000000013 0.94550000000000012 0.72850000000000015 0.79050000000000009 0.97650000000000003 1.0575000000000003 0.85350000000000015 1.3285000000000002 0.74450000000000016 0.97050000000000003 0.81250000000000011 0.6785000000000001 0.89850000000000019 0.82550000000000001 0.12450000000000001 0.78350000000000009 0.27550000000000008 0.64950000000000008 0.54050000000000009
decision_type=2 2 2 2 2 2 2 2 2 2 2 2 2 2 2 2 2 2 2 2 2 2 2 2 2 2 2 2 2 2
left_child=1 7 3 5 8 6 24 12 -4 19 26 -7 13 22 27 16 21 18 -8 -2 -21 -10 23 -1 -3 -25 -11 -15 -6 -18
right_child=9 2 4 -5 28 11 17 -9 15 10 -12 -13 -14 14 -16 -17 29 -19 -20 20 -22 -23 -24 25 -26 -27 -28 -29 -30 -31
leaf_value=-0.023109452073356504 0.0074032548816735343 0.0023099879072706643 -0.044721657947915328 0.047985155187671408 -0.011381564359311827 -0.030535243356409947 0.0285172395155633 0.037499213609197439 -0.0065257800193854942 -0.052247563324286317 -0.037989786374768963 0.028156472943663764 -0.046241108895032294 0.0023109787429566029 -0.026220916936018104 -0.024429206394387698 -0.0034166781340384633 0.045140941319423686 -0.058647180385834531 -0.034667124656524016 -0.063951030033115794 0.037299230071720563 -0.03604676787768623 0.044733537070795193 -0.071506523490385832 -0.015331038060435734 0.012400364688056546 0.041458117063161472 0.020832719239548998 -0.059088265263441367
leaf_weight=53.766154021024704 9.6826678216457349 35.868919312953949 39.073184385895729 196.0289972871542 31.339293658733368 32.814947992563248 24.992938920855526 19.092809796333313 25.486018016934395 7.9690696299076071 59.162797719240189 15.459489718079565 32.082656338810921 46.846602812409401 35.272804066538811 72.912028178572655 29.278223261237144 97.62806810438633 6.8230581879615775 66.996063262224197 71.944807231426239 36.613626226782799 69.890106827020645 16.179402694106106 5.9702497720718375 14.689313530921934 36.348583251237869 27.985775426030159 140.20188938081264 11.883175730705259
leaf_count=216 39 145 157 831 126 132 103 79 103 32 239 63 129 189 142 294 119 413 28 270 295 149 281 65 24 59 146 113 571 48
internal_value=0 0.160274 0.315263 0.635983 -0.0293366 0.346954 0.510913 -0.233512 -0.290964 -0.71915 -0.427754 -0.234794 -0.296798 -0.220659 0.0624156 -0.157122 0.0769222 0.729211 0.19649 -0.922037 -0.996612 0.386264 -0.42236 -0.175802 -0.164466 0.323019 0.0155113 0.339024 0.298948 -0.389778
internal_weight=0 1118.18 802.374 415.587 386.787 219.558 171.283 315.806 215.246 252.104 103.48 48.2744 296.713 264.63 110.105 176.173 103.261 129.444 31.816 148.624 138.941 62.0996 154.525 84.6349 41.8392 30.8687 44.3177 74.8324 171.541 41.1614
internal_count=5600 4579 3306 1739 1567 908 713 1273 870 1021 417 195 1194 1065 444 713 419 544 131 604 565 252 621 340 169 124 178 302 697 167
shrinkage=0.05


Tree=9
num_leaves=31
num_cat=0
split_feature=25 25 5 27 25 26 27 26 26 24 27 25 22 3 25 13 19 5 22 24 22 25 24 9 26 27 19 25 24 5
split_gain=144.247 62.2786 50.1436 53.9948 38.2975 49.4412 20.2135 19.1174 16.3932 16.0864 14.9833 14.1651 14.6912 14.0203 13.8497 13.3042 13.8147 12.9843 11.3418 11.2785 18.0535 11.2673 11.208 13.7406 11.0379 10.5591 10.4149 10.1798 10.0709 9.51557
threshold=1.2815000000000001 0.59250000000000014 0.88150000000000006 0.90450000000000019 0.96550000000000014 0.77250000000000008 0.82250000000000012 0.88850000000000018 0.88650000000000007 0.64150000000000007 0.83850000000000013 1.8325000000000002 1.0445000000000002 2.6165000000000007 0.79150000000000009 0.9405 0.75350000000000017 1.5755000000000001 1.0355000000000001 1.1525000000000003 1.0165000000000004 1.0505000000000002 0.83150000000000013 0.61050000000000015 0.81150000000000011 0.97050000000000003 1.4160000000000001 0.79150000000000009 1.1005000000000003 0.45850000000000002
decision_type=2 2 2 2 2 2 2 2 2 2 2 2 2 2 2 2 2 2 2 2 2 2 2 2 2 2 2 2 2 2
left_child=1 10 4 21 5 9 -7 -6 -8 -3 15 12 25 19 -10 16 22 -12 -9 20 -5 24 23 -1 27 -2 -21 -4 -22 -17
right_child=11 2 3 13 7 6 8 18 14 -11 17 -13 -14 -15 -16 29 -18 -19 -20 26 28 -23 -24 -25 -26 -27 -28 -29 -30 -31
leaf_value=-0.022945449841833391 -0.022931225137584329 0.021503812930259703 0.046323481114303414 -0.024265042303130389 -0.04720411161563734 0.03805674031955978 -0.027546451777439071 -0.019881939362175725 -0.0055143135898719584 -0.034332704225706938 -0.035851833001230453 -0.051842397734938352 -0.0045303164453217885 -0.053126894667333717 0.031486960256272123 -0.046415120101656653 -0.040845413756203992 0.029200008058051237 0.020625670662251544 0.028213578839301773 0.024743531896766077 0.015539187048796624 -0.03018686782789717 0.031824541367431826 0.054815132580729023 -0.053015303258270724 -0.029379234377018778 -0.0067430199263593393 -0.04869462216341338 0.027121992054743166
leaf_weight=18.159315317869186 66.717894285917282 16.198774918913841 21.795749843120575 45.203906744718552 45.478289872407913 112.04954870045185 24.685870081186295 51.9141004383564 40.450794130563736 63.327106654644012 86.922595024108887 78.955779284238815 53.559753179550171 8.9256030023097974 67.475475773215294 4.9713179916143408 33.465778782963753 8.4132404923439008 25.901792719960213 88.603409424424171 51.570003345608711 29.936714977025986 23.834920808672905 31.000765800476074 146.13735748827457 51.821992933750153 8.6128142774105054 15.438634023070334 5.1330548971891394 38.216876462101936
leaf_count=73 269 65 89 183 183 469 100 210 166 255 350 324 215 36 280 20 135 34 106 362 210 123 96 125 635 213 35 63 21 155
internal_value=0 0.152931 0.278494 0.526065 0.0453758 0.22579 0.448437 -0.429002 0.184226 -0.459185 -0.292378 -0.686158 -0.525268 0.163595 0.352377 -0.0949876 -0.284896 -0.602222 -0.127972 0.218556 -0.0138956 0.879598 -0.0409864 0.231859 0.972461 -0.721661 0.462224 0.486406 0.361911 0.373145
internal_weight=0 1113.82 868.839 421.357 447.482 324.188 244.662 123.294 132.612 79.5259 244.985 251.055 172.1 208.049 107.926 149.649 106.461 95.3358 77.8159 199.123 101.907 213.308 72.995 49.1601 183.372 118.54 97.2162 37.2344 56.7031 43.1882
internal_count=5600 4579 3591 1757 1834 1335 1015 499 546 320 988 1021 697 847 446 604 429 384 316 811 414 910 294 198 787 482 397 152 231 175
shrinkage=0.05


end of trees

feature importances:
feature_25=50
feature_5=40
feature_22=37
feature_26=37
feature_24=30
feature_27=29
feature_3=15
feature_0=9
feature_13=9
feature_9=8
feature_1=6
feature_17=6
feature_19=6
feature_4=5
feature_6=3
feature_10=2
feature_14=2
feature_18=2
feature_23=2
feature_2=1
feature_11=1

parameters:
[boosting: gbdt]
[objective: binary]
[metric: binary_logloss]
[tree_learner: serial]
[device_type: cpu]
[data: ]
[valid: ]
[num_iterations: 100]
[learning_rate: 0.05]
[num_leaves: 31]
[num_threads: 0]
[max_depth: -1]
[min_data_in_leaf: 20]
[min_sum_hessian_in_leaf: 0.001]
[bagging_fraction: 0.8]
[pos_bagging_fraction: 1]
[neg_bagging_fraction: 1]
[bagging_freq: 5]
[bagging_seed: 3]
[feature_fraction: 0.9]
[feature_fraction_bynode: 1]
[feature_fraction_seed: 2]
[early_stopping_round: 0]
[first_metric_only: 0]
[max_delta_step: 0]
[lambda_l1: 0]
[lambda_l2: 0]
[min_gain_to_split: 0]
[drop_rate: 0.1]
[max_drop: 50]
[skip_drop: 0.5]
[xgboost_dart_mode: 0]
[uniform_drop: 0]
[drop_seed: 4]
[top_rate: 0.2]
[other_rate: 0.1]
[min_data_per_group: 100]
[max_cat_threshold: 32]
[cat_l2: 10]
[cat_smooth: 10]
[max_cat_to_onehot: 4]
[top_k: 20]
[monotone_constraints: ]
[feature_contri: ]
[forcedsplits_filename: ]
[forcedbins_filename: ]
[refit_decay_rate: 0.9]
[cegb_tradeoff: 1]
[cegb_penalty_split: 0]
[cegb_penalty_feature_lazy: ]
[cegb_penalty_feature_coupled: ]
[verbosity: 0]
[max_bin: 255]
[max_bin_by_feature: ]
[min_data_in_bin: 3]
[bin_construct_sample_cnt: 200000]
[histogram_pool_size: -1]
[data_random_seed: 1]
[output_model: LightGBM_model.txt]
[snapshot_freq: -1]
[input_model: ]
[output_result: LightGBM_predict_result.txt]
[initscore_filename: ]
[valid_data_initscores: ]
[pre_partition: 0]
[enable_bundle: 1]
[max_conflict_rate: 0]
[is_enable_sparse: 1]
[sparse_threshold: 0.8]
[use_missing: 1]
[zero_as_missing: 0]
[two_round: 0]
[save_binary: 0]
[header: 0]
[label_column: ]
[weight_column: ]
[group_column: ]
[ignore_column: ]
[categorical_feature: ]
[predict_raw_score: 0]
[predict_leaf_index: 0]
[predict_contrib: 0]
[num_iteration_predict: -1]
[pred_early_stop: 0]
[pred_early_stop_freq: 10]
[pred_early_stop_margin: 10]
[convert_model_language: ]
[convert_model: gbdt_prediction.cpp]
[num_class: 1]
[is_unbalance: 0]
[scale_pos_weight: 1]
[sigmoid: 1]
[boost_from_average: 1]
[reg_sqrt: 0]
[alpha: 0.9]
[fair_c: 1]
[poisson_max_delta_step: 0.7]
[tweedie_variance_power: 1.5]
[max_position: 20]
[lambdamart_norm: 1]
[label_gain: ]
[metric_freq: 1]
[is_provide_training_metric: 0]
[eval_at: ]
[multi_error_top_k: 1]
[num_machines: 1]
[local_listen_port: 12400]
[time_out: 120]
[machine_list_filename: ]
[machines: ]
[gpu_platform_id: -1]
[gpu_device_id: -1]
[gpu_use_dp: 0]

end of parameters

pandas_categorical:[]
