{
    "name": "tree",
    "version": "v3",
    "num_class": 1,
    "num_tree_per_iteration": 1,
    "label_index": 0,
    "max_feature_idx": 27,
    "average_output": false,
    "objective": "binary sigmoid:1",
    "feature_names": [
        "feature_0",
        "feature_1",
        "feature_2",
        "feature_3",
        "feature_4",
        "feature_5",
        "feature_6",
        "feature_7",
        "feature_8",
        "feature_9",
        "feature_10",
        "feature_11",
        "feature_12",
        "feature_13",
        "feature_14",
        "feature_15",
        "feature_16",
        "feature_17",
        "feature_18",
        "feature_19",
        "feature_20",
        "feature_21",
        "feature_22",
        "feature_23",
        "feature_24",
        "feature_25",
        "feature_26",
        "feature_27"
    ],
    "monotone_constraints": [],
    "tree_info": [
        {
            "tree_index": 0,
            "num_leaves": 31,
            "num_cat": 0,
            "shrinkage": 1,
            "tree_structure": {
                "split_index": 0,
                "split_feature": 25,
                "split_gain": 258.0929870605469,
                "threshold": 1.2815,
                "decision_type": "<=",
                "default_left": true,
                "missing_type": "None",
                "internal_value": 0,
                "internal_weight": 0,
                "internal_count": 5600,
                "left_child": {
                    "split_index": 1,
                    "split_feature": 26,
                    "split_gain": 165.15899658203125,
                    "threshold": 0.7805000000000001,
                    "decision_type": "<=",
                    "default_left": true,
                    "missing_type": "None",
                    "internal_value": 0.217782,
                    "internal_weight": 1135.73,
                    "internal_count": 4560,
                    "left_child": {
                        "split_index": 7,
                        "split_feature": 5,
                        "split_gain": 36.02009963989258,
                        "threshold": 0.8255,
                        "decision_type": "<=",
                        "default_left": true,
                        "missing_type": "None",
                        "internal_value": -0.489543,
                        "internal_weight": 255.771,
                        "internal_count": 1027,
                        "left_child": {
                            "split_index": 23,
                            "split_feature": 24,
                            "split_gain": 13.446999549865723,
                            "threshold": 0.7185000000000001,
                            "decision_type": "<=",
                            "default_left": true,
                            "missing_type": "None",
                            "internal_value": -0.750649,
                            "internal_weight": 172.34,
                            "internal_count": 692,
                            "left_child": {
                                "leaf_index": 0,
                                "leaf_value": 0.10292417362382698,
                                "leaf_weight": 70.48018607497215,
                                "leaf_count": 283
                            },
                            "right_child": {
                                "leaf_index": 24,
                                "leaf_value": 0.07451618350873956,
                                "leaf_weight": 101.86005690693855,
                                "leaf_count": 409
                            }
                        },
                        "right_child": {
                            "split_index": 9,
                            "split_feature": 27,
                            "split_gain": 27.905899047851562,
                            "threshold": 0.9225000000000001,
                            "decision_type": "<=",
                            "default_left": true,
                            "missing_type": "None",
                            "internal_value": 0.0498153,
                            "internal_weight": 83.4306,
                            "internal_count": 335,
                            "left_child": {
                                "split_index": 22,
                                "split_feature": 5,
                                "split_gain": 14.235600471496582,
                                "threshold": 1.3365000000000002,
                                "decision_type": "<=",
                                "default_left": true,
                                "missing_type": "None",
                                "internal_value": 0.203144,
                                "internal_weight": 77.9516,
                                "internal_count": 313,
                                "left_child": {
                                    "split_index": 26,
                                    "split_feature": 25,
                                    "split_gain": 12.666500091552734,
                                    "threshold": 0.5865000000000001,
                                    "decision_type": "<=",
                                    "default_left": true,
                                    "missing_type": "None",
                                    "internal_value": 0.00149671,
                                    "internal_weight": 63.7559,
                                    "internal_count": 256,
                                    "left_child": {
                                        "split_index": 27,
                                        "split_feature": 24,
                                        "split_gain": 12.707799911499023,
                                        "threshold": 0.7455000000000002,
                                        "decision_type": "<=",
                                        "default_left": true,
                                        "missing_type": "None",
                                        "internal_value": -0.48433,
                                        "internal_weight": 29.1385,
                                        "internal_count": 117,
                                        "left_child": {
                                            "leaf_index": 8,
                                            "leaf_value": 0.12415945555782286,
                                            "leaf_weight": 18.678494542837146,
                                            "leaf_count": 75
                                        },
                                        "right_child": {
                                            "leaf_index": 28,
                                            "leaf_value": 0.05532552226366122,
                                            "leaf_weight": 10.459956943988798,
                                            "leaf_count": 42
                                        }
                                    },
                                    "right_child": {
                                        "leaf_index": 27,
                                        "leaf_value": 0.14418787419817045,
                                        "leaf_weight": 34.61747655272484,
                                        "leaf_count": 139
                                    }
                                },
                                "right_child": {
                                    "leaf_index": 23,
                                    "leaf_value": 0.1791058409066712,
                                    "leaf_weight": 14.195655852556227,
                                    "leaf_count": 57
                                }
                            },
                            "right_child": {
                                "leaf_index": 10,
                                "leaf_value": 0.017084448211349204,
                                "leaf_weight": 5.479025065898894,
                                "leaf_count": 22
                            }
                        }
                    },
                    "right_child": {
                        "split_index": 2,
                        "split_feature": 27,
                        "split_gain": 154.81500244140625,
                        "threshold": 0.9045000000000002,
                        "decision_type": "<=",
                        "default_left": true,
                        "missing_type": "None",
                        "internal_value": 0.423375,
                        "internal_weight": 879.956,
                        "internal_count": 3533,
                        "left_child": {
                            "split_index": 3,
                            "split_feature": 25,
                            "split_gain": 63.246498107910156,
                            "threshold": 0.9845000000000002,
                            "decision_type": "<=",
                            "default_left": true,
                            "missing_type": "None",
                            "internal_value": 0.803433,
                            "internal_weight": 483.225,
                            "internal_count": 1940,
                            "left_child": {
                                "split_index": 4,
                                "split_feature": 25,
                                "split_gain": 70.841796875,
                                "threshold": 0.6785000000000001,
                                "decision_type": "<=",
                                "default_left": true,
                                "missing_type": "None",
                                "internal_value": 0.987504,
                                "internal_weight": 383.856,
                                "internal_count": 1541,
                                "left_child": {
                                    "split_index": 28,
                                    "split_feature": 13,
                                    "split_gain": 12.32800006866455,
                                    "threshold": 0.9615000000000001,
                                    "decision_type": "<=",
                                    "default_left": true,
                                    "missing_type": "None",
                                    "internal_value": 0.25939,
                                    "internal_weight": 99.1205,
                                    "internal_count": 398,
                                    "left_child": {
                                        "split_index": 29,
                                        "split_feature": 24,
                                        "split_gain": 14.441300392150879,
                                        "threshold": 0.7515000000000001,
                                        "decision_type": "<=",
                                        "default_left": true,
                                        "missing_type": "None",
                                        "internal_value": 0.0523664,
                                        "internal_weight": 73.7178,
                                        "internal_count": 296,
                                        "left_child": {
                                            "leaf_index": 2,
                                            "leaf_value": 0.1692777550243813,
                                            "leaf_weight": 15.440888822078703,
                                            "leaf_count": 62
                                        },
                                        "right_child": {
                                            "leaf_index": 30,
                                            "leaf_value": 0.11489334915283957,
                                            "leaf_weight": 58.276902973651886,
                                            "leaf_count": 234
                                        }
                                    },
                                    "right_child": {
                                        "leaf_index": 29,
                                        "leaf_value": 0.16667453200421684,
                                        "leaf_weight": 25.402752578258514,
                                        "leaf_count": 102
                                    }
                                },
                                "right_child": {
                                    "split_index": 10,
                                    "split_feature": 26,
                                    "split_gain": 27.831899642944336,
                                    "threshold": 0.8695000000000002,
                                    "decision_type": "<=",
                                    "default_left": true,
                                    "missing_type": "None",
                                    "internal_value": 1.24097,
                                    "internal_weight": 284.735,
                                    "internal_count": 1143,
                                    "left_child": {
                                        "split_index": 11,
                                        "split_feature": 27,
                                        "split_gain": 26.586999893188477,
                                        "threshold": 0.7885000000000001,
                                        "decision_type": "<=",
                                        "default_left": true,
                                        "missing_type": "None",
                                        "internal_value": 0.808144,
                                        "internal_weight": 97.6263,
                                        "internal_count": 392,
                                        "left_child": {
                                            "leaf_index": 5,
                                            "leaf_value": 0.1808860163090684,
                                            "leaf_weight": 68.98590651154518,
                                            "leaf_count": 277
                                        },
                                        "right_child": {
                                            "leaf_index": 12,
                                            "leaf_value": 0.12357752617007028,
                                            "leaf_weight": 28.640358299016953,
                                            "leaf_count": 115
                                        }
                                    },
                                    "right_child": {
                                        "leaf_index": 11,
                                        "leaf_value": 0.19700658928739526,
                                        "leaf_weight": 187.10870602726936,
                                        "leaf_count": 751
                                    }
                                }
                            },
                            "right_child": {
                                "split_index": 8,
                                "split_feature": 5,
                                "split_gain": 33.60210037231445,
                                "threshold": 1.0195000000000003,
                                "decision_type": "<=",
                                "default_left": true,
                                "missing_type": "None",
                                "internal_value": 0.0923822,
                                "internal_weight": 99.3696,
                                "internal_count": 399,
                                "left_child": {
                                    "split_index": 13,
                                    "split_feature": 26,
                                    "split_gain": 22.12220001220703,
                                    "threshold": 0.8885000000000002,
                                    "decision_type": "<=",
                                    "default_left": true,
                                    "missing_type": "None",
                                    "internal_value": -0.270883,
                                    "internal_weight": 71.4764,
                                    "internal_count": 287,
                                    "left_child": {
                                        "leaf_index": 4,
                                        "leaf_value": 0.079337359459299,
                                        "leaf_weight": 32.127010613679886,
                                        "leaf_count": 129
                                    },
                                    "right_child": {
                                        "leaf_index": 14,
                                        "leaf_value": 0.135256627996421,
                                        "leaf_weight": 39.34936183691025,
                                        "leaf_count": 158
                                    }
                                },
                                "right_child": {
                                    "leaf_index": 9,
                                    "leaf_value": 0.17482887867713628,
                                    "leaf_weight": 27.893218517303467,
                                    "leaf_count": 112
                                }
                            }
                        },
                        "right_child": {
                            "split_index": 5,
                            "split_feature": 24,
                            "split_gain": 52.75659942626953,
                            "threshold": 1.0265000000000002,
                            "decision_type": "<=",
                            "default_left": true,
                            "missing_type": "None",
                            "internal_value": -0.0395418,
                            "internal_weight": 396.731,
                            "internal_count": 1593,
                            "left_child": {
                                "split_index": 6,
                                "split_feature": 22,
                                "split_gain": 84.25499725341797,
                                "threshold": 1.0445000000000002,
                                "decision_type": "<=",
                                "default_left": true,
                                "missing_type": "None",
                                "internal_value": -0.496971,
                                "internal_weight": 154.16,
                                "internal_count": 619,
                                "left_child": {
                                    "leaf_index": 3,
                                    "leaf_value": 0.06155371022006383,
                                    "leaf_weight": 76.45730432868004,
                                    "leaf_count": 307
                                },
                                "right_child": {
                                    "split_index": 24,
                                    "split_feature": 4,
                                    "split_gain": 12.735400199890137,
                                    "threshold": 1.2535,
                                    "decision_type": "<=",
                                    "default_left": true,
                                    "missing_type": "None",
                                    "internal_value": 0.236367,
                                    "internal_weight": 77.7025,
                                    "internal_count": 312,
                                    "left_child": {
                                        "split_index": 25,
                                        "split_feature": 4,
                                        "split_gain": 13.720800399780273,
                                        "threshold": -0.27149999999999996,
                                        "decision_type": "<=",
                                        "default_left": true,
                                        "missing_type": "None",
                                        "internal_value": 0.400406,
                                        "internal_weight": 66.7445,
                                        "internal_count": 268,
                                        "left_child": {
                                            "leaf_index": 7,
                                            "leaf_value": 0.1211851497981986,
                                            "leaf_weight": 33.62129017710686,
                                            "leaf_count": 135
                                        },
                                        "right_child": {
                                            "leaf_index": 26,
                                            "leaf_value": 0.16652654023156854,
                                            "leaf_weight": 33.12319698929787,
                                            "leaf_count": 133
                                        }
                                    },
                                    "right_child": {
                                        "leaf_index": 25,
                                        "leaf_value": 0.08552727961179402,
                                        "leaf_weight": 10.958050131797789,
                                        "leaf_count": 44
                                    }
                                }
                            },
                            "right_child": {
                                "split_index": 12,
                                "split_feature": 25,
                                "split_gain": 26.076200485229492,
                                "threshold": 0.6235,
                                "decision_type": "<=",
                                "default_left": true,
                                "missing_type": "None",
                                "internal_value": 0.251165,
                                "internal_weight": 242.571,
                                "internal_count": 974,
                                "left_child": {
                                    "leaf_index": 6,
                                    "leaf_value": 0.09938589019349899,
                                    "leaf_weight": 40.09650161862373,
                                    "leaf_count": 161
                                },
                                "right_child": {
                                    "split_index": 16,
                                    "split_feature": 3,
                                    "split_gain": 17.95549964904785,
                                    "threshold": 1.9205000000000003,
                                    "decision_type": "<=",
                                    "default_left": true,
                                    "missing_type": "None",
                                    "internal_value": 0.39707,
                                    "internal_weight": 202.475,
                                    "internal_count": 813,
                                    "left_child": {
                                        "split_index": 17,
                                        "split_feature": 25,
                                        "split_gain": 17.396299362182617,
                                        "threshold": 0.9895000000000002,
                                        "decision_type": "<=",
                                        "default_left": true,
                                        "missing_type": "None",
                                        "internal_value": 0.506036,
                                        "internal_weight": 178.566,
                                        "internal_count": 717,
                                        "left_child": {
                                            "leaf_index": 13,
                                            "leaf_value": 0.16073951140458043,
                                            "leaf_weight": 113.81429341435432,
                                            "leaf_count": 457
                                        },
                                        "right_child": {
                                            "split_index": 18,
                                            "split_feature": 13,
                                            "split_gain": 16.275100708007812,
                                            "threshold": 1.3835000000000004,
                                            "decision_type": "<=",
                                            "default_left": true,
                                            "missing_type": "None",
                                            "internal_value": 0.0922273,
                                            "internal_weight": 64.7521,
                                            "internal_count": 260,
                                            "left_child": {
                                                "leaf_index": 18,
                                                "leaf_value": 0.1149947843625274,
                                                "leaf_weight": 50.556458562612534,
                                                "leaf_count": 203
                                            },
                                            "right_child": {
                                                "leaf_index": 19,
                                                "leaf_value": 0.17558363671764246,
                                                "leaf_weight": 14.195655852556227,
                                                "leaf_count": 57
                                            }
                                        }
                                    },
                                    "right_child": {
                                        "leaf_index": 17,
                                        "leaf_value": 0.10282810643801757,
                                        "leaf_weight": 23.908473014831543,
                                        "leaf_count": 96
                                    }
                                }
                            }
                        }
                    }
                },
                "right_child": {
                    "split_index": 14,
                    "split_feature": 27,
                    "split_gain": 21.940399169921875,
                    "threshold": 0.8895000000000001,
                    "decision_type": "<=",
                    "default_left": true,
                    "missing_type": "None",
                    "internal_value": -0.888436,
                    "internal_weight": 259.008,
                    "internal_count": 1040,
                    "left_child": {
                        "split_index": 20,
                        "split_feature": 22,
                        "split_gain": 14.467100143432617,
                        "threshold": 0.9475000000000001,
                        "decision_type": "<=",
                        "default_left": true,
                        "missing_type": "None",
                        "internal_value": -0.352702,
                        "internal_weight": 59.024,
                        "internal_count": 237,
                        "left_child": {
                            "leaf_index": 1,
                            "leaf_value": 0.08179403426267884,
                            "leaf_weight": 30.134637862443924,
                            "leaf_count": 121
                        },
                        "right_child": {
                            "split_index": 21,
                            "split_feature": 19,
                            "split_gain": 15.390299797058105,
                            "threshold": -0.9644999999999999,
                            "decision_type": "<=",
                            "default_left": true,
                            "missing_type": "None",
                            "internal_value": 0.152936,
                            "internal_weight": 28.8894,
                            "internal_count": 116,
                            "left_child": {
                                "leaf_index": 21,
                                "leaf_value": 0.06341498023626572,
                                "leaf_weight": 6.475211441516879,
                                "leaf_count": 26
                            },
                            "right_child": {
                                "leaf_index": 22,
                                "leaf_value": 0.1509282073944413,
                                "leaf_weight": 22.41419345140457,
                                "leaf_count": 90
                            }
                        }
                    },
                    "right_child": {
                        "split_index": 15,
                        "split_feature": 24,
                        "split_gain": 33.776100158691406,
                        "threshold": 1.1225000000000003,
                        "decision_type": "<=",
                        "default_left": true,
                        "missing_type": "None",
                        "internal_value": -1.04655,
                        "internal_weight": 199.984,
                        "internal_count": 803,
                        "left_child": {
                            "leaf_index": 15,
                            "leaf_value": 0.0518140492316065,
                            "leaf_weight": 105.09766262769699,
                            "leaf_count": 422
                        },
                        "right_child": {
                            "split_index": 19,
                            "split_feature": 3,
                            "split_gain": 15.194100379943848,
                            "threshold": 1.8335000000000004,
                            "decision_type": "<=",
                            "default_left": true,
                            "missing_type": "None",
                            "internal_value": -0.61404,
                            "internal_weight": 94.8868,
                            "internal_count": 381,
                            "left_child": {
                                "leaf_index": 16,
                                "leaf_value": 0.10135644473403681,
                                "leaf_weight": 80.69109642505646,
                                "leaf_count": 324
                            },
                            "right_child": {
                                "leaf_index": 20,
                                "leaf_value": 0.04526208172357911,
                                "leaf_weight": 14.195655852556227,
                                "leaf_count": 57
                            }
                        }
                    }
                }
            }
        },
        {
            "tree_index": 1,
            "num_leaves": 31,
            "num_cat": 0,
            "shrinkage": 0.05,
            "tree_structure": {
                "split_index": 0,
                "split_feature": 25,
                "split_gain": 232.61700439453125,
                "threshold": 1.2815,
                "decision_type": "<=",
                "default_left": true,
                "missing_type": "None",
                "internal_value": 0,
                "internal_weight": 0,
                "internal_count": 5600,
                "left_child": {
                    "split_index": 1,
                    "split_feature": 26,
                    "split_gain": 149.50399780273438,
                    "threshold": 0.7765000000000001,
                    "decision_type": "<=",
                    "default_left": true,
                    "missing_type": "None",
                    "internal_value": 0.207217,
                    "internal_weight": 1134.35,
                    "internal_count": 4560,
                    "left_child": {
                        "split_index": 5,
                        "split_feature": 5,
                        "split_gain": 33.90729904174805,
                        "threshold": 0.8255,
                        "decision_type": "<=",
                        "default_left": true,
                        "missing_type": "None",
                        "internal_value": -0.475041,
                        "internal_weight": 250.311,
                        "internal_count": 1004,
                        "left_child": {
                            "split_index": 15,
                            "split_feature": 24,
                            "split_gain": 13.23960018157959,
                            "threshold": 0.7185000000000001,
                            "decision_type": "<=",
                            "default_left": true,
                            "missing_type": "None",
                            "internal_value": -0.728763,
                            "internal_weight": 169.676,
                            "internal_count": 680,
                            "left_child": {
                                "split_index": 25,
                                "split_feature": 19,
                                "split_gain": 10.104299545288086,
                                "threshold": 1.0425000000000002,
                                "decision_type": "<=",
                                "default_left": true,
                                "missing_type": "None",
                                "internal_value": -0.395695,
                                "internal_weight": 70.0643,
                                "internal_count": 281,
                                "left_child": {
                                    "split_index": 28,
                                    "split_feature": 23,
                                    "split_gain": 9.344710350036621,
                                    "threshold": 0.9805,
                                    "decision_type": "<=",
                                    "default_left": true,
                                    "missing_type": "None",
                                    "internal_value": -0.202022,
                                    "internal_weight": 55.6026,
                                    "internal_count": 223,
                                    "left_child": {
                                        "leaf_index": 0,
                                        "leaf_value": -0.07054556736786934,
                                        "leaf_weight": 5.734798699617385,
                                        "leaf_count": 23
                                    },
                                    "right_child": {
                                        "split_index": 29,
                                        "split_feature": 3,
                                        "split_gain": 10.621800422668457,
                                        "threshold": 0.3365000000000001,
                                        "decision_type": "<=",
                                        "default_left": true,
                                        "missing_type": "None",
                                        "internal_value": -0.063,
                                        "internal_weight": 49.8678,
                                        "internal_count": 200,
                                        "left_child": {
                                            "leaf_index": 29,
                                            "leaf_value": 0.05654628253718296,
                                            "leaf_weight": 6.482815921306609,
                                            "leaf_count": 26
                                        },
                                        "right_child": {
                                            "leaf_index": 30,
                                            "leaf_value": -0.012070134289000313,
                                            "leaf_weight": 43.384998857975006,
                                            "leaf_count": 174
                                        }
                                    }
                                },
                                "right_child": {
                                    "leaf_index": 26,
                                    "leaf_value": -0.057016546861190134,
                                    "leaf_weight": 14.461666285991667,
                                    "leaf_count": 58
                                }
                            },
                            "right_child": {
                                "leaf_index": 16,
                                "leaf_value": -0.048151769308209885,
                                "leaf_weight": 99.61165863275528,
                                "leaf_count": 399
                            }
                        },
                        "right_child": {
                            "split_index": 13,
                            "split_feature": 3,
                            "split_gain": 15.87399959564209,
                            "threshold": 0.9765,
                            "decision_type": "<=",
                            "default_left": true,
                            "missing_type": "None",
                            "internal_value": 0.0588528,
                            "internal_weight": 80.6352,
                            "internal_count": 324,
                            "left_child": {
                                "leaf_index": 6,
                                "leaf_value": 0.020647624087933653,
                                "leaf_weight": 49.26007391512394,
                                "leaf_count": 198
                            },
                            "right_child": {
                                "split_index": 16,
                                "split_feature": 9,
                                "split_gain": 12.7568998336792,
                                "threshold": 0.8925000000000002,
                                "decision_type": "<=",
                                "default_left": true,
                                "missing_type": "None",
                                "internal_value": -0.497097,
                                "internal_weight": 31.3751,
                                "internal_count": 126,
                                "left_child": {
                                    "leaf_index": 14,
                                    "leaf_value": -0.049419010140496225,
                                    "leaf_weight": 19.688014268875126,
                                    "leaf_count": 79
                                },
                                "right_child": {
                                    "leaf_index": 17,
                                    "leaf_value": 0.016525868109330353,
                                    "leaf_weight": 11.687062725424765,
                                    "leaf_count": 47
                                }
                            }
                        }
                    },
                    "right_child": {
                        "split_index": 2,
                        "split_feature": 25,
                        "split_gain": 79.7406005859375,
                        "threshold": 0.6235,
                        "decision_type": "<=",
                        "default_left": true,
                        "missing_type": "None",
                        "internal_value": 0.400396,
                        "internal_weight": 884.034,
                        "internal_count": 3556,
                        "left_child": {
                            "split_index": 19,
                            "split_feature": 5,
                            "split_gain": 12.269399642944336,
                            "threshold": 1.5755000000000001,
                            "decision_type": "<=",
                            "default_left": true,
                            "missing_type": "None",
                            "internal_value": -0.274971,
                            "internal_weight": 145.959,
                            "internal_count": 586,
                            "left_child": {
                                "leaf_index": 2,
                                "leaf_value": -0.01827213399534907,
                                "leaf_weight": 133.00784780085087,
                                "leaf_count": 534
                            },
                            "right_child": {
                                "leaf_index": 20,
                                "leaf_value": 0.032708532404784885,
                                "leaf_weight": 12.951076492667196,
                                "leaf_count": 52
                            }
                        },
                        "right_child": {
                            "split_index": 3,
                            "split_feature": 25,
                            "split_gain": 118.3550033569336,
                            "threshold": 0.9895000000000002,
                            "decision_type": "<=",
                            "default_left": true,
                            "missing_type": "None",
                            "internal_value": 0.533954,
                            "internal_weight": 738.075,
                            "internal_count": 2970,
                            "left_child": {
                                "split_index": 4,
                                "split_feature": 3,
                                "split_gain": 38.331298828125,
                                "threshold": 1.6175000000000004,
                                "decision_type": "<=",
                                "default_left": true,
                                "missing_type": "None",
                                "internal_value": 0.7862,
                                "internal_weight": 528.408,
                                "internal_count": 2128,
                                "left_child": {
                                    "split_index": 7,
                                    "split_feature": 5,
                                    "split_gain": 19.42340087890625,
                                    "threshold": 0.8815000000000001,
                                    "decision_type": "<=",
                                    "default_left": true,
                                    "missing_type": "None",
                                    "internal_value": 0.892429,
                                    "internal_weight": 457.274,
                                    "internal_count": 1842,
                                    "left_child": {
                                        "split_index": 18,
                                        "split_feature": 3,
                                        "split_gain": 12.480400085449219,
                                        "threshold": 1.1435000000000002,
                                        "decision_type": "<=",
                                        "default_left": true,
                                        "missing_type": "None",
                                        "internal_value": 0.680692,
                                        "internal_weight": 222.467,
                                        "internal_count": 896,
                                        "left_child": {
                                            "leaf_index": 3,
                                            "leaf_value": 0.04054763429678736,
                                            "leaf_weight": 170.80537793040276,
                                            "leaf_count": 688
                                        },
                                        "right_child": {
                                            "leaf_index": 19,
                                            "leaf_value": 0.01250082452607933,
                                            "leaf_weight": 51.66129723191261,
                                            "leaf_count": 208
                                        }
                                    },
                                    "right_child": {
                                        "split_index": 8,
                                        "split_feature": 26,
                                        "split_gain": 21.811500549316406,
                                        "threshold": 1.0375000000000003,
                                        "decision_type": "<=",
                                        "default_left": true,
                                        "missing_type": "None",
                                        "internal_value": 1.09304,
                                        "internal_weight": 234.807,
                                        "internal_count": 946,
                                        "left_child": {
                                            "leaf_index": 8,
                                            "leaf_value": 0.06530244602088685,
                                            "leaf_weight": 157.75188791751862,
                                            "leaf_count": 636
                                        },
                                        "right_child": {
                                            "leaf_index": 9,
                                            "leaf_value": 0.032847560252330626,
                                            "leaf_weight": 77.0552204400301,
                                            "leaf_count": 310
                                        }
                                    }
                                },
                                "right_child": {
                                    "split_index": 20,
                                    "split_feature": 24,
                                    "split_gain": 11.595100402832031,
                                    "threshold": 1.7450000000000003,
                                    "decision_type": "<=",
                                    "default_left": true,
                                    "missing_type": "None",
                                    "internal_value": 0.103326,
                                    "internal_weight": 71.1344,
                                    "internal_count": 286,
                                    "left_child": {
                                        "split_index": 23,
                                        "split_feature": 13,
                                        "split_gain": 11.54539966583252,
                                        "threshold": 0.7325,
                                        "decision_type": "<=",
                                        "default_left": true,
                                        "missing_type": "None",
                                        "internal_value": 0.236443,
                                        "internal_weight": 64.1595,
                                        "internal_count": 258,
                                        "left_child": {
                                            "leaf_index": 5,
                                            "leaf_value": 0.04107002530401929,
                                            "leaf_weight": 22.11242538690567,
                                            "leaf_count": 89
                                        },
                                        "right_child": {
                                            "leaf_index": 24,
                                            "leaf_value": -0.0035591977472011283,
                                            "leaf_weight": 42.04706044495106,
                                            "leaf_count": 169
                                        }
                                    },
                                    "right_child": {
                                        "leaf_index": 21,
                                        "leaf_value": -0.05605867170208859,
                                        "leaf_weight": 6.974891260266303,
                                        "leaf_count": 28
                                    }
                                }
                            },
                            "right_child": {
                                "split_index": 9,
                                "split_feature": 22,
                                "split_gain": 18.596599578857422,
                                "threshold": 1.0025000000000002,
                                "decision_type": "<=",
                                "default_left": true,
                                "missing_type": "None",
                                "internal_value": -0.101761,
                                "internal_weight": 209.667,
                                "internal_count": 842,
                                "left_child": {
                                    "split_index": 10,
                                    "split_feature": 22,
                                    "split_gain": 19.06839942932129,
                                    "threshold": 0.8495000000000001,
                                    "decision_type": "<=",
                                    "default_left": true,
                                    "missing_type": "None",
                                    "internal_value": -0.347976,
                                    "internal_weight": 124.544,
                                    "internal_count": 500,
                                    "left_child": {
                                        "leaf_index": 4,
                                        "leaf_value": 0.005043062714606287,
                                        "leaf_weight": 53.780241683125496,
                                        "leaf_count": 216
                                    },
                                    "right_child": {
                                        "leaf_index": 11,
                                        "leaf_value": -0.03445460511881384,
                                        "leaf_weight": 70.76366835832596,
                                        "leaf_count": 284
                                    }
                                },
                                "right_child": {
                                    "split_index": 14,
                                    "split_feature": 26,
                                    "split_gain": 14.27079963684082,
                                    "threshold": 0.9495000000000001,
                                    "decision_type": "<=",
                                    "default_left": true,
                                    "missing_type": "None",
                                    "internal_value": 0.258476,
                                    "internal_weight": 85.1234,
                                    "internal_count": 342,
                                    "left_child": {
                                        "split_index": 27,
                                        "split_feature": 5,
                                        "split_gain": 9.37987995147705,
                                        "threshold": 0.9805,
                                        "decision_type": "<=",
                                        "default_left": true,
                                        "missing_type": "None",
                                        "internal_value": -0.52712,
                                        "internal_weight": 18.1837,
                                        "internal_count": 73,
                                        "left_child": {
                                            "leaf_index": 10,
                                            "leaf_value": -0.048371091608472166,
                                            "leaf_weight": 13.216595917940142,
                                            "leaf_count": 53
                                        },
                                        "right_child": {
                                            "leaf_index": 28,
                                            "leaf_value": 0.03222184165601842,
                                            "leaf_weight": 4.967146784067153,
                                            "leaf_count": 20
                                        }
                                    },
                                    "right_child": {
                                        "split_index": 21,
                                        "split_feature": 26,
                                        "split_gain": 11.55270004272461,
                                        "threshold": 1.1205000000000003,
                                        "decision_type": "<=",
                                        "default_left": true,
                                        "missing_type": "None",
                                        "internal_value": 0.471878,
                                        "internal_weight": 66.9396,
                                        "internal_count": 269,
                                        "left_child": {
                                            "leaf_index": 15,
                                            "leaf_value": 0.04622974600937059,
                                            "leaf_weight": 30.600289717316628,
                                            "leaf_count": 123
                                        },
                                        "right_child": {
                                            "split_index": 22,
                                            "split_feature": 19,
                                            "split_gain": 11.845199584960938,
                                            "threshold": 0.6290000000000001,
                                            "decision_type": "<=",
                                            "default_left": true,
                                            "missing_type": "None",
                                            "internal_value": 0.0906582,
                                            "internal_weight": 36.3393,
                                            "internal_count": 146,
                                            "left_child": {
                                                "leaf_index": 22,
                                                "leaf_value": -0.01420997039909578,
                                                "leaf_weight": 25.392751201987267,
                                                "leaf_count": 102
                                            },
                                            "right_child": {
                                                "leaf_index": 23,
                                                "leaf_value": 0.0480107592552422,
                                                "leaf_weight": 10.94656904041767,
                                                "leaf_count": 44
                                            }
                                        }
                                    }
                                }
                            }
                        }
                    }
                },
                "right_child": {
                    "split_index": 6,
                    "split_feature": 22,
                    "split_gain": 19.958999633789062,
                    "threshold": 1.0445000000000002,
                    "decision_type": "<=",
                    "default_left": true,
                    "missing_type": "None",
                    "internal_value": -0.842244,
                    "internal_weight": 259.53,
                    "internal_count": 1040,
                    "left_child": {
                        "split_index": 11,
                        "split_feature": 26,
                        "split_gain": 17.714599609375,
                        "threshold": 0.9765,
                        "decision_type": "<=",
                        "default_left": true,
                        "missing_type": "None",
                        "internal_value": -1.04015,
                        "internal_weight": 171.952,
                        "internal_count": 689,
                        "left_child": {
                            "split_index": 24,
                            "split_feature": 9,
                            "split_gain": 11.250399589538574,
                            "threshold": 0.8185000000000001,
                            "decision_type": "<=",
                            "default_left": true,
                            "missing_type": "None",
                            "internal_value": -0.374216,
                            "internal_weight": 32.4149,
                            "internal_count": 130,
                            "left_child": {
                                "leaf_index": 1,
                                "leaf_value": -0.06369874746816996,
                                "leaf_weight": 9.72678707540035,
                                "leaf_count": 39
                            },
                            "right_child": {
                                "leaf_index": 25,
                                "leaf_value": 0.0005763410859918045,
                                "leaf_weight": 22.688080459833145,
                                "leaf_count": 91
                            }
                        },
                        "right_child": {
                            "split_index": 12,
                            "split_feature": 22,
                            "split_gain": 20.214099884033203,
                            "threshold": 0.7845000000000001,
                            "decision_type": "<=",
                            "default_left": true,
                            "missing_type": "None",
                            "internal_value": -1.19485,
                            "internal_weight": 139.537,
                            "internal_count": 559,
                            "left_child": {
                                "leaf_index": 12,
                                "leaf_value": -0.005367450243002156,
                                "leaf_weight": 15.226846426725386,
                                "leaf_count": 61
                            },
                            "right_child": {
                                "split_index": 26,
                                "split_feature": 24,
                                "split_gain": 9.877989768981934,
                                "threshold": 1.1005000000000003,
                                "decision_type": "<=",
                                "default_left": true,
                                "missing_type": "None",
                                "internal_value": -1.32806,
                                "internal_weight": 124.31,
                                "internal_count": 498,
                                "left_child": {
                                    "leaf_index": 13,
                                    "leaf_value": -0.07784779804058702,
                                    "leaf_weight": 74.91600781679153,
                                    "leaf_count": 300
                                },
                                "right_child": {
                                    "leaf_index": 27,
                                    "leaf_value": -0.04904517596369161,
                                    "leaf_weight": 49.394375905394554,
                                    "leaf_count": 198
                                }
                            }
                        }
                    },
                    "right_child": {
                        "split_index": 17,
                        "split_feature": 25,
                        "split_gain": 12.708399772644043,
                        "threshold": 2.0390000000000006,
                        "decision_type": "<=",
                        "default_left": true,
                        "missing_type": "None",
                        "internal_value": -0.453661,
                        "internal_weight": 87.5774,
                        "internal_count": 351,
                        "left_child": {
                            "leaf_index": 7,
                            "leaf_value": -0.011244746472429313,
                            "leaf_weight": 64.36436784267426,
                            "leaf_count": 258
                        },
                        "right_child": {
                            "leaf_index": 18,
                            "leaf_value": -0.05439882308384301,
                            "leaf_weight": 23.213069558143616,
                            "leaf_count": 93
                        }
                    }
                }
            }
        },
        {
            "tree_index": 2,
            "num_leaves": 31,
            "num_cat": 0,
            "shrinkage": 0.05,
            "tree_structure": {
                "split_index": 0,
                "split_feature": 27,
                "split_gain": 148.18499755859375,
                "threshold": 0.9025000000000002,
                "decision_type": "<=",
                "default_left": true,
                "missing_type": "None",
                "internal_value": 0,
                "internal_weight": 0,
                "internal_count": 5600,
                "left_child": {
                    "split_index": 1,
                    "split_feature": 26,
                    "split_gain": 184.5070037841797,
                    "threshold": 0.8115000000000001,
                    "decision_type": "<=",
                    "default_left": true,
                    "missing_type": "None",
                    "internal_value": 0.298727,
                    "internal_weight": 783.826,
                    "internal_count": 3157,
                    "left_child": {
                        "split_index": 4,
                        "split_feature": 5,
                        "split_gain": 40.44139862060547,
                        "threshold": 0.8205000000000001,
                        "decision_type": "<=",
                        "default_left": true,
                        "missing_type": "None",
                        "internal_value": -0.317424,
                        "internal_weight": 299.994,
                        "internal_count": 1204,
                        "left_child": {
                            "split_index": 16,
                            "split_feature": 26,
                            "split_gain": 13.084500312805176,
                            "threshold": 0.7725000000000001,
                            "decision_type": "<=",
                            "default_left": true,
                            "missing_type": "None",
                            "internal_value": -0.571991,
                            "internal_weight": 202.6,
                            "internal_count": 812,
                            "left_child": {
                                "split_index": 25,
                                "split_feature": 24,
                                "split_gain": 10.685099601745605,
                                "threshold": 0.7185000000000001,
                                "decision_type": "<=",
                                "default_left": true,
                                "missing_type": "None",
                                "internal_value": -0.702926,
                                "internal_weight": 160.1,
                                "internal_count": 641,
                                "left_child": {
                                    "split_index": 29,
                                    "split_feature": 19,
                                    "split_gain": 10.093500137329102,
                                    "threshold": 0.8035000000000001,
                                    "decision_type": "<=",
                                    "default_left": true,
                                    "missing_type": "None",
                                    "internal_value": -0.400792,
                                    "internal_weight": 67.6165,
                                    "internal_count": 271,
                                    "left_child": {
                                        "leaf_index": 0,
                                        "leaf_value": -0.007306583932945355,
                                        "leaf_weight": 47.13768720626831,
                                        "leaf_count": 189
                                    },
                                    "right_child": {
                                        "leaf_index": 30,
                                        "leaf_value": -0.049348221891941484,
                                        "leaf_weight": 20.478829205036163,
                                        "leaf_count": 82
                                    }
                                },
                                "right_child": {
                                    "leaf_index": 26,
                                    "leaf_value": -0.046191035241864846,
                                    "leaf_weight": 92.48392835259438,
                                    "leaf_count": 370
                                }
                            },
                            "right_child": {
                                "split_index": 20,
                                "split_feature": 18,
                                "split_gain": 11.186200141906738,
                                "threshold": 0.03750000000000001,
                                "decision_type": "<=",
                                "default_left": true,
                                "missing_type": "None",
                                "internal_value": -0.0787473,
                                "internal_weight": 42.4999,
                                "internal_count": 171,
                                "left_child": {
                                    "split_index": 21,
                                    "split_feature": 27,
                                    "split_gain": 10.885100364685059,
                                    "threshold": 0.7335000000000002,
                                    "decision_type": "<=",
                                    "default_left": true,
                                    "missing_type": "None",
                                    "internal_value": -0.526663,
                                    "internal_weight": 24.1168,
                                    "internal_count": 97,
                                    "left_child": {
                                        "leaf_index": 17,
                                        "leaf_value": 0.008324692989596774,
                                        "leaf_weight": 11.681568473577501,
                                        "leaf_count": 47
                                    },
                                    "right_child": {
                                        "leaf_index": 22,
                                        "leaf_value": -0.058890618144533204,
                                        "leaf_weight": 12.435196608304976,
                                        "leaf_count": 50
                                    }
                                },
                                "right_child": {
                                    "leaf_index": 21,
                                    "leaf_value": 0.025443695119278426,
                                    "leaf_weight": 18.383085042238235,
                                    "leaf_count": 74
                                }
                            }
                        },
                        "right_child": {
                            "split_index": 18,
                            "split_feature": 5,
                            "split_gain": 12.481399536132812,
                            "threshold": 1.3665,
                            "decision_type": "<=",
                            "default_left": true,
                            "missing_type": "None",
                            "internal_value": 0.212131,
                            "internal_weight": 97.3938,
                            "internal_count": 392,
                            "left_child": {
                                "leaf_index": 5,
                                "leaf_value": 0.00264247009018398,
                                "leaf_weight": 81.2989799529314,
                                "leaf_count": 327
                            },
                            "right_child": {
                                "leaf_index": 19,
                                "leaf_value": 0.05083514587350812,
                                "leaf_weight": 16.0948636084795,
                                "leaf_count": 65
                            }
                        }
                    },
                    "right_child": {
                        "split_index": 6,
                        "split_feature": 5,
                        "split_gain": 27.21619987487793,
                        "threshold": 0.8965000000000001,
                        "decision_type": "<=",
                        "default_left": true,
                        "missing_type": "None",
                        "internal_value": 0.680765,
                        "internal_weight": 483.831,
                        "internal_count": 1953,
                        "left_child": {
                            "split_index": 7,
                            "split_feature": 22,
                            "split_gain": 19.053199768066406,
                            "threshold": 1.0355,
                            "decision_type": "<=",
                            "default_left": true,
                            "missing_type": "None",
                            "internal_value": 0.454004,
                            "internal_weight": 252.77,
                            "internal_count": 1019,
                            "left_child": {
                                "split_index": 8,
                                "split_feature": 27,
                                "split_gain": 22.19230079650879,
                                "threshold": 0.8385000000000001,
                                "decision_type": "<=",
                                "default_left": true,
                                "missing_type": "None",
                                "internal_value": 0.308395,
                                "internal_weight": 197.28,
                                "internal_count": 795,
                                "left_child": {
                                    "split_index": 26,
                                    "split_feature": 4,
                                    "split_gain": 10.536600112915039,
                                    "threshold": -1.2844999999999998,
                                    "decision_type": "<=",
                                    "default_left": true,
                                    "missing_type": "None",
                                    "internal_value": 0.523958,
                                    "internal_weight": 139.61,
                                    "internal_count": 563,
                                    "left_child": {
                                        "split_index": 27,
                                        "split_feature": 26,
                                        "split_gain": 15.481599807739258,
                                        "threshold": 0.8605000000000002,
                                        "decision_type": "<=",
                                        "default_left": true,
                                        "missing_type": "None",
                                        "internal_value": -0.150626,
                                        "internal_weight": 19.8604,
                                        "internal_count": 80,
                                        "left_child": {
                                            "leaf_index": 2,
                                            "leaf_value": -0.05623084117438009,
                                            "leaf_weight": 8.958331391215326,
                                            "leaf_count": 36
                                        },
                                        "right_child": {
                                            "leaf_index": 28,
                                            "leaf_value": 0.032485600310353614,
                                            "leaf_weight": 10.902059018611906,
                                            "leaf_count": 44
                                        }
                                    },
                                    "right_child": {
                                        "leaf_index": 27,
                                        "leaf_value": 0.03179185931465069,
                                        "leaf_weight": 119.74999912083149,
                                        "leaf_count": 483
                                    }
                                },
                                "right_child": {
                                    "split_index": 15,
                                    "split_feature": 26,
                                    "split_gain": 13.152400016784668,
                                    "threshold": 0.8985000000000002,
                                    "decision_type": "<=",
                                    "default_left": true,
                                    "missing_type": "None",
                                    "internal_value": -0.213456,
                                    "internal_weight": 57.6694,
                                    "internal_count": 232,
                                    "left_child": {
                                        "leaf_index": 9,
                                        "leaf_value": -0.047735076649610644,
                                        "leaf_weight": 16.91599103808403,
                                        "leaf_count": 68
                                    },
                                    "right_child": {
                                        "leaf_index": 16,
                                        "leaf_value": 0.004711094602468073,
                                        "leaf_weight": 40.753367215394974,
                                        "leaf_count": 164
                                    }
                                }
                            },
                            "right_child": {
                                "leaf_index": 8,
                                "leaf_value": 0.04858383145423883,
                                "leaf_weight": 55.48992492258549,
                                "leaf_count": 224
                            }
                        },
                        "right_child": {
                            "leaf_index": 7,
                            "leaf_value": 0.0464414653265689,
                            "leaf_weight": 231.061821565032,
                            "leaf_count": 934
                        }
                    }
                },
                "right_child": {
                    "split_index": 2,
                    "split_feature": 24,
                    "split_gain": 89.34929656982422,
                    "threshold": 1.0265000000000002,
                    "decision_type": "<=",
                    "default_left": true,
                    "missing_type": "None",
                    "internal_value": -0.358997,
                    "internal_weight": 608.444,
                    "internal_count": 2443,
                    "left_child": {
                        "split_index": 3,
                        "split_feature": 22,
                        "split_gain": 94.55259704589844,
                        "threshold": 1.0445000000000002,
                        "decision_type": "<=",
                        "default_left": true,
                        "missing_type": "None",
                        "internal_value": -0.810789,
                        "internal_weight": 254.582,
                        "internal_count": 1021,
                        "left_child": {
                            "split_index": 17,
                            "split_feature": 27,
                            "split_gain": 12.629500389099121,
                            "threshold": 1.0885000000000002,
                            "decision_type": "<=",
                            "default_left": true,
                            "missing_type": "None",
                            "internal_value": -1.33905,
                            "internal_weight": 145.361,
                            "internal_count": 582,
                            "left_child": {
                                "split_index": 22,
                                "split_feature": 24,
                                "split_gain": 10.695099830627441,
                                "threshold": 0.7355000000000002,
                                "decision_type": "<=",
                                "default_left": true,
                                "missing_type": "None",
                                "internal_value": -1.12002,
                                "internal_weight": 93.6496,
                                "internal_count": 375,
                                "left_child": {
                                    "leaf_index": 1,
                                    "leaf_value": -0.016487469307459514,
                                    "leaf_weight": 14.477678209543226,
                                    "leaf_count": 58
                                },
                                "right_child": {
                                    "split_index": 23,
                                    "split_feature": 22,
                                    "split_gain": 12.168899536132812,
                                    "threshold": 0.8015000000000001,
                                    "decision_type": "<=",
                                    "default_left": true,
                                    "missing_type": "None",
                                    "internal_value": -1.26453,
                                    "internal_weight": 79.1719,
                                    "internal_count": 317,
                                    "left_child": {
                                        "leaf_index": 23,
                                        "leaf_value": -0.020899500706621717,
                                        "leaf_weight": 13.981861710548399,
                                        "leaf_count": 56
                                    },
                                    "right_child": {
                                        "leaf_index": 24,
                                        "leaf_value": -0.07230479563557186,
                                        "leaf_weight": 65.19006079435349,
                                        "leaf_count": 261
                                    }
                                }
                            },
                            "right_child": {
                                "leaf_index": 18,
                                "leaf_value": -0.08678597525912357,
                                "leaf_weight": 51.71180838346481,
                                "leaf_count": 207
                            }
                        },
                        "right_child": {
                            "split_index": 9,
                            "split_feature": 26,
                            "split_gain": 18.771400451660156,
                            "threshold": 1.3665,
                            "decision_type": "<=",
                            "default_left": true,
                            "missing_type": "None",
                            "internal_value": -0.107724,
                            "internal_weight": 109.22,
                            "internal_count": 439,
                            "left_child": {
                                "split_index": 14,
                                "split_feature": 24,
                                "split_gain": 13.3548002243042,
                                "threshold": 0.7825000000000001,
                                "decision_type": "<=",
                                "default_left": true,
                                "missing_type": "None",
                                "internal_value": 0.174733,
                                "internal_weight": 74.5936,
                                "internal_count": 300,
                                "left_child": {
                                    "split_index": 28,
                                    "split_feature": 13,
                                    "split_gain": 10.234999656677246,
                                    "threshold": 0.7805000000000001,
                                    "decision_type": "<=",
                                    "default_left": true,
                                    "missing_type": "None",
                                    "internal_value": 0.78718,
                                    "internal_weight": 24.1007,
                                    "internal_count": 97,
                                    "left_child": {
                                        "leaf_index": 4,
                                        "leaf_value": -0.010525945621810534,
                                        "leaf_weight": 7.207369893789294,
                                        "leaf_count": 29
                                    },
                                    "right_child": {
                                        "leaf_index": 29,
                                        "leaf_value": 0.060641862462725994,
                                        "leaf_weight": 16.893363937735558,
                                        "leaf_count": 68
                                    }
                                },
                                "right_child": {
                                    "leaf_index": 15,
                                    "leaf_value": -0.005879698219165272,
                                    "leaf_weight": 50.492837592959404,
                                    "leaf_count": 203
                                }
                            },
                            "right_child": {
                                "split_index": 11,
                                "split_feature": 22,
                                "split_gain": 13.539899826049805,
                                "threshold": 1.5530000000000002,
                                "decision_type": "<=",
                                "default_left": true,
                                "missing_type": "None",
                                "internal_value": -0.716196,
                                "internal_weight": 34.6269,
                                "internal_count": 139,
                                "left_child": {
                                    "leaf_index": 10,
                                    "leaf_value": -0.08410613120398629,
                                    "leaf_weight": 10.226239919662474,
                                    "leaf_count": 41
                                },
                                "right_child": {
                                    "split_index": 19,
                                    "split_feature": 18,
                                    "split_gain": 11.72659969329834,
                                    "threshold": -0.8034999999999999,
                                    "decision_type": "<=",
                                    "default_left": true,
                                    "missing_type": "None",
                                    "internal_value": -0.311379,
                                    "internal_weight": 24.4006,
                                    "internal_count": 98,
                                    "left_child": {
                                        "leaf_index": 12,
                                        "leaf_value": -0.06308494214616267,
                                        "leaf_weight": 8.474870592355726,
                                        "leaf_count": 34
                                    },
                                    "right_child": {
                                        "leaf_index": 20,
                                        "leaf_value": 0.009716597056438916,
                                        "leaf_weight": 15.92575925588608,
                                        "leaf_count": 64
                                    }
                                }
                            }
                        }
                    },
                    "right_child": {
                        "split_index": 5,
                        "split_feature": 3,
                        "split_gain": 27.378700256347656,
                        "threshold": 1.9205000000000003,
                        "decision_type": "<=",
                        "default_left": true,
                        "missing_type": "None",
                        "internal_value": -0.0339608,
                        "internal_weight": 353.862,
                        "internal_count": 1422,
                        "left_child": {
                            "split_index": 12,
                            "split_feature": 22,
                            "split_gain": 13.516300201416016,
                            "threshold": 1.0465000000000002,
                            "decision_type": "<=",
                            "default_left": true,
                            "missing_type": "None",
                            "internal_value": 0.0707549,
                            "internal_weight": 309.936,
                            "internal_count": 1246,
                            "left_child": {
                                "split_index": 13,
                                "split_feature": 22,
                                "split_gain": 18.567100524902344,
                                "threshold": 0.7445000000000002,
                                "decision_type": "<=",
                                "default_left": true,
                                "missing_type": "None",
                                "internal_value": -0.107664,
                                "internal_weight": 179.158,
                                "internal_count": 720,
                                "left_child": {
                                    "leaf_index": 3,
                                    "leaf_value": 0.03723972174253592,
                                    "leaf_weight": 22.36130204796791,
                                    "leaf_count": 90
                                },
                                "right_child": {
                                    "leaf_index": 14,
                                    "leaf_value": -0.011461805446360647,
                                    "leaf_weight": 156.7969994544983,
                                    "leaf_count": 630
                                }
                            },
                            "right_child": {
                                "leaf_index": 13,
                                "leaf_value": 0.015758944867592224,
                                "leaf_weight": 130.7780214548111,
                                "leaf_count": 526
                            }
                        },
                        "right_child": {
                            "split_index": 10,
                            "split_feature": 26,
                            "split_gain": 16.13789939880371,
                            "threshold": 1.2195000000000003,
                            "decision_type": "<=",
                            "default_left": true,
                            "missing_type": "None",
                            "internal_value": -0.772828,
                            "internal_weight": 43.9256,
                            "internal_count": 176,
                            "left_child": {
                                "split_index": 24,
                                "split_feature": 1,
                                "split_gain": 10.691200256347656,
                                "threshold": -0.5024999999999998,
                                "decision_type": "<=",
                                "default_left": true,
                                "missing_type": "None",
                                "internal_value": -0.0929329,
                                "internal_weight": 19.4515,
                                "internal_count": 78,
                                "left_child": {
                                    "leaf_index": 6,
                                    "leaf_value": 0.042241534217950696,
                                    "leaf_weight": 7.4813948571682,
                                    "leaf_count": 30
                                },
                                "right_child": {
                                    "leaf_index": 25,
                                    "leaf_value": -0.03395211630187301,
                                    "leaf_weight": 11.970084518194197,
                                    "leaf_count": 48
                                }
                            },
                            "right_child": {
                                "leaf_index": 11,
                                "leaf_value": -0.06565966347614603,
                                "leaf_weight": 24.474132180213928,
                                "leaf_count": 98
                            }
                        }
                    }
                }
            }
        },
        {
            "tree_index": 3,
            "num_leaves": 31,
            "num_cat": 0,
            "shrinkage": 0.05,
            "tree_structure": {
                "split_index": 0,
                "split_feature": 25,
                "split_gain": 205.5,
                "threshold": 1.0565000000000002,
                "decision_type": "<=",
                "default_left": true,
                "missing_type": "None",
                "internal_value": 0,
                "internal_weight": 0,
                "internal_count": 5600,
                "left_child": {
                    "split_index": 1,
                    "split_feature": 26,
                    "split_gain": 147.0330047607422,
                    "threshold": 0.7805000000000001,
                    "decision_type": "<=",
                    "default_left": true,
                    "missing_type": "None",
                    "internal_value": 0.259205,
                    "internal_weight": 980.762,
                    "internal_count": 3957,
                    "left_child": {
                        "split_index": 10,
                        "split_feature": 5,
                        "split_gain": 25.903900146484375,
                        "threshold": 0.8255,
                        "decision_type": "<=",
                        "default_left": true,
                        "missing_type": "None",
                        "internal_value": -0.408359,
                        "internal_weight": 246.883,
                        "internal_count": 990,
                        "left_child": {
                            "split_index": 29,
                            "split_feature": 3,
                            "split_gain": 10.17199993133545,
                            "threshold": 0.45550000000000007,
                            "decision_type": "<=",
                            "default_left": true,
                            "missing_type": "None",
                            "internal_value": -0.633172,
                            "internal_weight": 166.622,
                            "internal_count": 667,
                            "left_child": {
                                "leaf_index": 0,
                                "leaf_value": -0.008206782226844253,
                                "leaf_weight": 36.19371213018894,
                                "leaf_count": 145
                            },
                            "right_child": {
                                "leaf_index": 30,
                                "leaf_value": -0.038166459259787525,
                                "leaf_weight": 130.42828957736492,
                                "leaf_count": 522
                            }
                        },
                        "right_child": {
                            "split_index": 11,
                            "split_feature": 27,
                            "split_gain": 24.213300704956055,
                            "threshold": 0.7565000000000001,
                            "decision_type": "<=",
                            "default_left": true,
                            "missing_type": "None",
                            "internal_value": 0.0583577,
                            "internal_weight": 80.2605,
                            "internal_count": 323,
                            "left_child": {
                                "split_index": 21,
                                "split_feature": 6,
                                "split_gain": 12.189599990844727,
                                "threshold": -1.2374999999999998,
                                "decision_type": "<=",
                                "default_left": true,
                                "missing_type": "None",
                                "internal_value": 0.437493,
                                "internal_weight": 54.3597,
                                "internal_count": 219,
                                "left_child": {
                                    "leaf_index": 11,
                                    "leaf_value": -0.04721654545895445,
                                    "leaf_weight": 5.712955191731452,
                                    "leaf_count": 23
                                },
                                "right_child": {
                                    "leaf_index": 22,
                                    "leaf_value": 0.029988569110934837,
                                    "leaf_weight": 48.646721333265305,
                                    "leaf_count": 196
                                }
                            },
                            "right_child": {
                                "split_index": 27,
                                "split_feature": 27,
                                "split_gain": 10.400300025939941,
                                "threshold": 0.9225000000000001,
                                "decision_type": "<=",
                                "default_left": true,
                                "missing_type": "None",
                                "internal_value": -0.737357,
                                "internal_weight": 25.9008,
                                "internal_count": 104,
                                "left_child": {
                                    "leaf_index": 12,
                                    "leaf_value": -0.020428809991953234,
                                    "leaf_weight": 20.40714150667191,
                                    "leaf_count": 82
                                },
                                "right_child": {
                                    "leaf_index": 28,
                                    "leaf_value": -0.0979332609500337,
                                    "leaf_weight": 5.493689790368079,
                                    "leaf_count": 22
                                }
                            }
                        }
                    },
                    "right_child": {
                        "split_index": 2,
                        "split_feature": 27,
                        "split_gain": 120.61499786376953,
                        "threshold": 0.9045000000000002,
                        "decision_type": "<=",
                        "default_left": true,
                        "missing_type": "None",
                        "internal_value": 0.483779,
                        "internal_weight": 733.88,
                        "internal_count": 2967,
                        "left_child": {
                            "split_index": 3,
                            "split_feature": 25,
                            "split_gain": 48.80179977416992,
                            "threshold": 0.6785000000000001,
                            "decision_type": "<=",
                            "default_left": true,
                            "missing_type": "None",
                            "internal_value": 0.837929,
                            "internal_weight": 416.237,
                            "internal_count": 1689,
                            "left_child": {
                                "split_index": 25,
                                "split_feature": 13,
                                "split_gain": 10.905599594116211,
                                "threshold": 0.9615000000000001,
                                "decision_type": "<=",
                                "default_left": true,
                                "missing_type": "None",
                                "internal_value": 0.224118,
                                "internal_weight": 98.7874,
                                "internal_count": 398,
                                "left_child": {
                                    "split_index": 26,
                                    "split_feature": 24,
                                    "split_gain": 12.560400009155273,
                                    "threshold": 0.7515000000000001,
                                    "decision_type": "<=",
                                    "default_left": true,
                                    "missing_type": "None",
                                    "internal_value": 0.0294871,
                                    "internal_weight": 73.5493,
                                    "internal_count": 296,
                                    "left_child": {
                                        "leaf_index": 2,
                                        "leaf_value": 0.04174314534137903,
                                        "leaf_weight": 15.328658059239386,
                                        "leaf_count": 62
                                    },
                                    "right_child": {
                                        "leaf_index": 27,
                                        "leaf_value": -0.009127841464491424,
                                        "leaf_weight": 58.2206406891346,
                                        "leaf_count": 234
                                    }
                                },
                                "right_child": {
                                    "leaf_index": 26,
                                    "leaf_value": 0.039565820925008176,
                                    "leaf_weight": 25.238058298826218,
                                    "leaf_count": 102
                                }
                            },
